/*
 * Copyright (c) 2026 EdgeImpulse Inc.
 *
 * Generated by Edge Impulse and licensed under the applicable Edge Impulse
 * Terms of Service. Community and Professional Terms of Service
 * (https://edgeimpulse.com/legal/terms-of-service) or Enterprise Terms of
 * Service (https://edgeimpulse.com/legal/enterprise-terms-of-service),
 * according to your product plan subscription (the “License”).
 *
 * This software, documentation and other associated files (collectively referred
 * to as the “Software”) is a single SDK variation generated by the Edge Impulse
 * platform and requires an active paid Edge Impulse subscription to use this
 * Software for any purpose.
 *
 * You may NOT use this Software unless you have an active Edge Impulse subscription
 * that meets the eligibility requirements for the applicable License, subject to
 * your full and continued compliance with the terms and conditions of the License,
 * including without limitation any usage restrictions under the applicable License.
 *
 * If you do not have an active Edge Impulse product plan subscription, or if use
 * of this Software exceeds the usage limitations of your Edge Impulse product plan
 * subscription, you are not permitted to use this Software and must immediately
 * delete and erase all copies of this Software within your control or possession.
 * Edge Impulse reserves all rights and remedies available to enforce its rights.
 *
 * Unless required by applicable law or agreed to in writing, the Software is
 * distributed on an "AS IS" BASIS, WITHOUT WARRANTIES OR CONDITIONS OF ANY KIND,
 * either express or implied. See the License for the specific language governing
 * permissions, disclaimers and limitations under the License.
 */
// Generated on: 06.05.2026 12:42:51

#include <stdio.h>
#include <stdlib.h>
#include "edge-impulse-sdk/tensorflow/lite/c/builtin_op_data.h"
#include "edge-impulse-sdk/tensorflow/lite/c/common.h"
#include "edge-impulse-sdk/tensorflow/lite/micro/micro_mutable_op_resolver.h"
#include "edge-impulse-sdk/porting/ei_classifier_porting.h"

#if EI_CLASSIFIER_PRINT_STATE
#if defined(__cplusplus) && EI_C_LINKAGE == 1
extern "C" {
    extern void ei_printf(const char *format, ...);
}
#else
extern void ei_printf(const char *format, ...);
#endif
#endif

#define STRINGIZE(x) #x
#define STRINGIZE_VALUE_OF(x) STRINGIZE(x)

#if defined (__GNUC__)  /* GNU compiler */
#define ALIGN(X) __attribute__((aligned(X)))
#define DEFINE_SECTION(x) __attribute__((section(x)))
#elif defined (_MSC_VER)
#define ALIGN(X) __declspec(align(X))
#elif defined (__TASKING__) /* TASKING Compiler */
#define ALIGN(X) __align(X)
#define DEFINE_SECTION(x) __attribute__((section(x)))
#elif defined (__ARMCC_VERSION) /* Arm Compiler */
#define ALIGN(X) __ALIGNED(x)
#define DEFINE_SECTION(x) __attribute__((section(x)))
#elif defined (__ICCARM__) /* IAR Compiler */
#define ALIGN(x) __attribute__((aligned(x)))
#define DEFINE_SECTION(x) __attribute__((section(x)))
#elif defined (__clang__) /* LLVM/Clang Compiler */
#define ALIGN(X) __ALIGNED(x)
#define DEFINE_SECTION(x) __attribute__((section(x)))
#endif

#if defined(EI_MODEL_SECTION) && (defined(__GNUC__) || defined(__clang__))
#define MODEL_SECTION(X) __attribute__((section(STRINGIZE_VALUE_OF(X))))
#else
#define MODEL_SECTION(X)
#endif

#ifndef EI_MAX_SCRATCH_BUFFER_COUNT
#ifndef CONFIG_IDF_TARGET_ESP32S3
#define EI_MAX_SCRATCH_BUFFER_COUNT 14
#else
#define EI_MAX_SCRATCH_BUFFER_COUNT 28
#endif // CONFIG_IDF_TARGET_ESP32S3
#endif // EI_MAX_SCRATCH_BUFFER_COUNT

#ifndef EI_MAX_OVERFLOW_BUFFER_COUNT
#define EI_MAX_OVERFLOW_BUFFER_COUNT 10
#endif // EI_MAX_OVERFLOW_BUFFER_COUNT

using namespace tflite;
using namespace tflite::ops;
using namespace tflite::ops::micro;

namespace {

#if defined(EI_CLASSIFIER_ALLOCATION_STATIC_HIMAX) || defined(EI_CLASSIFIER_ALLOCATION_STATIC_HIMAX_GNU)
constexpr int kTensorArenaSize = 242576;
#else
constexpr int kTensorArenaSize = 241552;
#endif

#if defined(EI_CLASSIFIER_ALLOCATION_STATIC)
#if defined (EI_TENSOR_ARENA_LOCATION)
uint8_t tensor_arena[kTensorArenaSize] ALIGN(16) DEFINE_SECTION(STRINGIZE_VALUE_OF(EI_TENSOR_ARENA_LOCATION));
#else
uint8_t tensor_arena[kTensorArenaSize] ALIGN(16);
#endif
#elif defined(EI_CLASSIFIER_ALLOCATION_STATIC_HIMAX)
#pragma Bss(".tensor_arena")
uint8_t tensor_arena[kTensorArenaSize] ALIGN(16);
#pragma Bss()
#elif defined(EI_CLASSIFIER_ALLOCATION_STATIC_HIMAX_GNU)
uint8_t tensor_arena[kTensorArenaSize] ALIGN(16) __attribute__((section(".tensor_arena")));
#else
#define EI_CLASSIFIER_ALLOCATION_HEAP 1
uint8_t* tensor_arena = NULL;
#endif

static uint8_t* tensor_boundary;
static uint8_t* current_location;

template <int SZ, class T> struct TfArray {
  int sz; T elem[SZ];
};

enum used_operators_e {
  OP_CONV_2D, OP_DEPTHWISE_CONV_2D, OP_PAD, OP_ADD, OP_SOFTMAX,  OP_LAST
};

struct TensorInfo_t { // subset of TfLiteTensor used for initialization from constant memory
  TfLiteAllocationType allocation_type;
  TfLiteType type;
  void* data;
  TfLiteIntArray* dims;
  size_t bytes;
  TfLiteQuantization quantization;
};

typedef struct {
  TfLiteTensor tensor;
  int16_t index;
} TfLiteTensorWithIndex;

typedef struct {
  TfLiteEvalTensor tensor;
  int16_t index;
} TfLiteEvalTensorWithIndex;

TfLiteContext ctx{};
static const int MAX_TFL_TENSOR_COUNT = 4;
static TfLiteTensorWithIndex tflTensors[MAX_TFL_TENSOR_COUNT];
static const int MAX_TFL_EVAL_COUNT = 4;
static TfLiteEvalTensorWithIndex tflEvalTensors[MAX_TFL_EVAL_COUNT];
TfLiteRegistration registrations[OP_LAST];

namespace g0 {
const TfArray<4, int> tensor_dimension0 = { 4, { 1,96,96,1 } };
const TfArray<1, float> quant0_scale = { 1, { 0.0036203307099640369, } };
const TfArray<1, int> quant0_zero = { 1, { -128 } };
const TfLiteAffineQuantization quant0 = { (TfLiteFloatArray*)&quant0_scale, (TfLiteIntArray*)&quant0_zero, 0 };
const MODEL_SECTION(EI_MODEL_SECTION) ALIGN(16) int32_t tensor_data1[4*2] = { 
  0, 0, 
  0, 1, 
  0, 1, 
  0, 0, 
};
const TfArray<2, int> tensor_dimension1 = { 2, { 4,2 } };
const MODEL_SECTION(EI_MODEL_SECTION) ALIGN(8) int32_t tensor_data2[2] = { 26484, -32997, };
const TfArray<1, int> tensor_dimension2 = { 1, { 2 } };
const TfArray<2, float> quant2_scale = { 2, { 0.00018925749463960528, 0.00014954064681660384, } };
const TfArray<2, int> quant2_zero = { 2, { 0,0 } };
const TfLiteAffineQuantization quant2 = { (TfLiteFloatArray*)&quant2_scale, (TfLiteIntArray*)&quant2_zero, 0 };
const MODEL_SECTION(EI_MODEL_SECTION) ALIGN(16) int8_t tensor_data3[2*1*1*32] = { 
  /* [0][0][][] */ 29,-41,-49,78,-25,6,-65,70,91,-7,-10,-37,-25,62,-60,11,84,-43,-49,-92,127,116,99,-81,-23,-66,-27,122,17,-89,-10,44, 
  /* [1][0][][] */ 57,83,82,-58,-115,80,11,7,-30,-8,24,110,127,45,40,13,-34,6,-53,-88,-82,21,18,110,75,73,-40,-33,95,-105,-124,-7, 
};
const TfArray<4, int> tensor_dimension3 = { 4, { 2,1,1,32 } };
const TfArray<2, float> quant3_scale = { 2, { 0.0039814841002225876, 0.0031459450256079435, } };
const TfLiteAffineQuantization quant3 = { (TfLiteFloatArray*)&quant3_scale, (TfLiteIntArray*)&g0::quant2_zero, 0 };
const MODEL_SECTION(EI_MODEL_SECTION) ALIGN(16) int32_t tensor_data4[32] = { -135, 213, 204, -1042, 1827, 177, -1457, 225, -956, -711, -253, -132, 255, 193, -244, -1185, -361, -1488, -1238, -1120, -466, -665, -820, -398, -765, -445, -1154, 1723, -1470, -908, 711, -1065, };
const TfArray<1, int> tensor_dimension4 = { 1, { 32 } };
const TfArray<32, float> quant4_scale = { 32, { 6.2698447436559945e-05, 4.4529882870847359e-05, 4.7902707592584193e-05, 5.2001476433360949e-05, 6.317782390397042e-05, 6.0273501730989665e-05, 5.3022100473754108e-05, 3.8973372284090146e-05, 4.9274640332441777e-05, 5.7830606237985194e-05, 5.2896033594151959e-05, 5.5603701184736565e-05, 4.8835521738510579e-05, 4.3045736674685031e-05, 5.8290646848035976e-05, 5.0545746489660814e-05, 4.2499061237322167e-05, 5.8345416618976742e-05, 5.1282462663948536e-05, 5.0521164666861296e-05, 5.7338173064636067e-05, 4.4820488255936652e-05, 5.965024683973752e-05, 4.8706362576922402e-05, 5.8172041462967172e-05, 4.5238466555019841e-05, 5.2740753744728863e-05, 7.0806599978823215e-05, 5.3122163080843166e-05, 5.7640594604890794e-05, 6.7437511461321265e-05, 4.9018170102499425e-05, } };
const TfArray<32, int> quant4_zero = { 32, { 0,0,0,0,0,0,0,0,0,0,0,0,0,0,0,0,0,0,0,0,0,0,0,0,0,0,0,0,0,0,0,0 } };
const TfLiteAffineQuantization quant4 = { (TfLiteFloatArray*)&quant4_scale, (TfLiteIntArray*)&quant4_zero, 0 };
const MODEL_SECTION(EI_MODEL_SECTION) ALIGN(16) int8_t tensor_data5[32*1*1*96] = { 
  /* [0][0][][] */ -33,-39,75,7,69,-11,-60,-67,-5,-77,-80,7,36,-5,-27,37,-31,-28,-55,-37,-67,-78,-19,84,-127,-1,54,-28,77,-4,-16,-57,54,-43,-62,39,-68,-59,-70,31,45,-52,-65,75,39,-101,73,-12,-15,-46,-25,62,-53,-29,-68,74,-8,52,65,-79,-47,59,-52,33,-6,4,56,64,36,71,22,-83,67,-68,30,53,-65,16,-72,13,38,12,51,-8,-41,-35,-78,62,3,53,-17,-71,7,40,11,6, 
  /* [1][0][][] */ -64,46,-54,8,-18,88,50,26,41,-104,-85,127,67,-48,34,74,125,-29,30,124,-53,-20,28,52,-42,17,-24,117,21,15,112,-51,58,108,-2,31,65,64,-9,-37,-46,23,-9,-77,-23,32,-30,-58,-20,-82,126,67,23,92,-62,-42,15,117,50,96,-36,127,-82,-63,-42,38,95,47,111,42,-37,25,-110,99,-37,53,95,-31,-43,53,-63,93,-54,-98,20,108,-69,-54,60,39,73,45,89,87,42,-10, 
  /* [2][0][][] */ 33,46,-41,94,-1,-44,91,101,-120,72,-17,127,85,-34,84,-90,-33,-14,26,59,-93,-27,93,42,-86,71,108,21,-52,81,86,96,-61,-12,-76,-93,-64,90,99,-1,-91,-53,24,10,-65,102,-23,-74,91,35,95,-69,-30,66,32,22,-72,104,-64,19,3,67,-48,75,95,45,63,84,-76,75,-42,-51,30,-58,38,32,-34,-9,1,-6,47,-75,-13,-24,-5,-91,-20,-19,65,65,-38,25,-32,-75,-28,-64, 
  /* [3][0][][] */ 39,-22,9,-41,-81,19,-116,10,90,-5,32,-20,55,60,38,-17,63,59,-69,-11,75,-93,-76,-117,28,-116,-90,66,15,-105,49,-16,-63,-52,-36,-35,-95,-43,11,17,-44,-99,-39,-22,38,3,-60,-91,33,-92,13,-24,56,1,51,-105,-120,-120,-119,-72,-103,7,-53,38,24,-50,-74,-49,-50,-81,51,61,-5,-111,23,-64,6,127,58,-71,-97,-122,14,54,2,15,-58,-121,-91,82,-23,-112,55,-35,-98,23, 
  /* [4][0][][] */ 68,127,37,70,17,28,62,45,93,92,44,63,51,6,20,11,17,48,-4,47,118,-34,116,43,41,37,77,12,1,67,-5,5,80,114,40,-36,18,38,-30,57,18,14,-18,-5,64,122,52,90,70,3,26,2,-12,85,-14,41,80,-31,73,60,49,-7,30,-3,8,90,32,18,55,-42,-14,-12,10,46,115,91,86,36,51,8,42,1,-15,40,43,104,116,54,-23,6,78,62,52,96,-23,37, 
  /* [5][0][][] */ 62,-55,65,66,42,-76,28,52,50,-88,11,-31,18,54,32,34,56,50,-56,76,18,26,8,-2,-127,-46,-1,-55,42,29,22,-62,-27,6,-45,14,-71,-22,36,34,-53,-25,38,81,-18,14,23,-40,-77,75,28,30,37,19,33,-13,68,49,-44,-17,37,-38,12,-42,-13,75,-4,25,59,10,35,-39,-35,61,-13,-46,18,-26,7,47,86,36,17,88,-62,55,-6,35,38,-97,71,78,-8,16,62,-62, 
  /* [6][0][][] */ -15,-61,61,32,-99,-80,-33,22,-33,-98,-25,-102,40,16,62,-127,2,-22,-27,53,-91,-124,66,17,-73,-97,-38,-75,-52,-123,6,-89,-104,-123,-68,-115,-38,3,-119,36,43,15,-9,-39,-116,56,-88,-60,-50,-16,-52,-77,17,-67,45,-52,-25,-37,-84,64,-107,-30,24,-89,-72,26,50,-71,32,-32,-105,-35,18,-83,-104,-65,-86,-110,-67,-52,-4,-53,9,-52,-85,-98,-60,-108,38,53,53,-18,-72,-85,30,-50, 
  /* [7][0][][] */ 118,95,-34,-46,-71,127,-17,12,117,-6,-88,26,57,-108,50,98,61,27,-5,126,63,28,-7,103,-102,110,50,77,-86,124,-15,44,20,32,75,103,-102,100,-5,-14,115,-66,104,95,64,2,102,-122,56,-63,-117,-62,-21,113,26,27,117,-88,-2,-46,27,-3,76,-119,-73,-62,88,28,-121,22,39,106,91,32,80,73,-51,59,-101,43,108,-43,-24,-65,97,48,-125,119,88,-10,82,84,-64,-54,6,-72, 
  /* [8][0][][] */ -3,9,-67,-107,25,-1,-91,-42,26,11,17,54,-18,-31,-96,-86,-86,63,-76,-11,15,-7,55,69,-40,60,14,43,-85,-8,-105,79,58,-48,21,-28,75,-26,-41,36,48,63,-118,-127,-35,-42,-39,73,3,-100,-82,-25,-82,-30,-55,-120,25,69,-104,68,72,10,22,67,-54,-62,-45,65,-99,13,64,-25,45,28,-15,-5,-63,63,58,51,5,42,-88,-100,5,19,48,-61,27,-20,-93,62,-99,-109,-66,30, 
  /* [9][0][][] */ -4,49,65,16,37,-74,-58,-111,73,29,-32,16,-29,-39,-92,-43,-17,39,-82,-61,48,91,-37,-102,127,-20,-34,26,-29,-69,-90,65,39,-2,8,-29,-62,-1,-39,-57,10,-64,28,-91,82,9,-83,36,66,-27,-83,0,33,-65,-75,67,50,-67,-21,-28,-90,59,82,-77,-86,-11,54,18,-44,64,126,-89,-3,45,-99,-92,-49,-86,17,93,5,2,64,6,-28,-31,28,-30,65,20,-20,59,62,-4,31,-33, 
  /* [10][0][][] */ -63,68,78,-55,-4,90,94,27,-30,11,21,-45,72,42,-31,7,-23,64,-93,-54,-37,5,24,-45,-42,36,-103,-88,-38,64,-70,-61,60,80,92,56,-34,-2,-35,43,-21,103,-93,-25,-81,-76,-12,-76,-12,-3,35,9,51,16,-54,-33,-105,-3,11,-36,1,70,73,39,97,-65,-70,-20,18,-15,-127,-51,57,50,-73,86,-15,40,33,-15,63,2,36,93,-101,31,71,-28,12,-28,-26,-47,-41,-51,-31,-72, 
  /* [11][0][][] */ 77,8,-8,83,96,34,42,29,31,62,-63,95,-10,-76,21,-50,-34,-85,43,33,13,50,-8,-76,-127,-77,-17,54,65,-9,22,-16,-79,-56,44,32,-52,58,-26,-35,-16,90,-55,4,-33,-68,-67,-73,30,78,89,32,-74,-66,13,20,-80,-37,-48,-91,-61,68,54,9,24,58,-34,22,69,52,-106,-53,25,84,-78,38,-68,27,-49,55,-80,-17,-61,-29,33,-71,-9,-22,-85,-30,-3,-74,-66,-30,-52,-35, 
  /* [12][0][][] */ 5,73,-34,11,95,17,-18,47,-96,49,3,36,-35,-7,53,-58,-69,-18,-46,-61,20,-21,11,109,-121,-42,103,-73,92,23,-17,114,-74,-54,-32,17,12,-60,-10,61,116,51,-84,-19,-8,-74,-35,100,-36,-99,-53,103,45,11,-59,82,-26,-32,42,74,70,114,-18,61,112,35,-20,110,59,103,-10,78,75,110,-4,3,-16,44,-102,-95,-37,101,39,27,-35,27,47,112,-94,-127,67,58,97,-14,40,64, 
  /* [13][0][][] */ 98,-45,112,101,109,121,90,80,48,-112,30,-9,88,51,72,-38,-109,-61,-75,31,67,-54,112,-31,-115,38,15,34,-84,-80,96,48,37,108,-19,36,-71,-27,30,92,-48,94,-39,30,-36,28,-28,-54,34,103,-22,-89,-87,37,112,-86,-55,45,-23,-58,-6,127,-96,24,-44,-59,-76,87,-33,-7,52,14,-100,42,-67,-32,-88,59,79,-91,64,-92,95,40,-100,-114,96,127,-22,-80,-100,72,118,-54,83,-12, 
  /* [14][0][][] */ -53,-67,72,56,66,-26,-11,-76,-70,-40,60,78,-27,-76,-68,-66,-24,-50,2,17,-41,6,-16,62,-127,-62,-24,25,-83,-96,-54,29,74,-25,-27,1,70,90,18,-70,1,-77,36,68,37,-84,38,-89,58,28,60,41,75,-42,-9,8,-45,15,29,82,-3,-61,-61,55,-66,-20,65,-86,-71,-59,-101,74,-12,67,32,-54,47,-87,29,2,40,-12,-86,-17,-98,-88,-81,80,69,-24,37,-27,65,81,-6,40, 
  /* [15][0][][] */ -13,-45,-53,30,51,-100,24,-108,90,-29,-84,-20,64,-18,-104,-119,48,-14,-103,-8,23,-8,39,64,113,31,9,55,-12,23,30,-111,-27,-19,-82,-37,-81,63,69,-82,-10,69,-69,-44,-4,-89,-69,-92,-29,-101,-30,3,-110,-110,-69,-36,35,19,-66,70,-62,-82,-21,60,-57,58,-88,-24,-78,-31,96,-88,-10,-45,25,-117,-25,19,68,45,-97,17,-115,-79,-127,-53,-102,8,49,55,-123,-61,13,68,-116,69, 
  /* [16][0][][] */ -65,-14,84,-78,18,99,-73,20,93,52,-127,41,-23,-20,-67,-74,81,66,75,51,122,99,-34,20,57,53,-88,49,-118,3,21,-5,-111,68,47,51,-51,44,-55,-98,5,-65,55,73,49,106,98,-9,-65,-117,-13,100,-58,107,50,31,35,65,77,-6,96,91,52,44,37,5,-62,82,31,76,33,-27,27,78,51,77,-26,78,-108,7,-5,-102,60,-5,18,106,104,-3,96,58,3,87,56,-36,-101,30, 
  /* [17][0][][] */ -15,-122,14,57,-36,-106,-61,-75,-12,-87,29,48,37,1,-104,3,31,-1,61,71,-116,-47,-36,-27,-26,24,-76,-24,71,-73,-34,34,-58,-64,-4,5,-59,65,-89,-20,-95,-59,-9,-47,-38,-40,33,-123,35,56,-6,-20,-29,9,63,-81,-114,60,-105,-124,-1,-76,9,62,-69,-100,31,-111,-86,8,32,6,-28,-89,-88,26,41,-20,-15,-89,-2,-18,-69,-74,-127,8,16,-64,-25,13,-115,-91,-7,25,6,-22, 
  /* [18][0][][] */ -110,56,65,-83,-34,-119,-114,-26,-29,61,-117,-63,-58,4,18,-74,-8,-47,24,-48,51,-69,-9,-90,43,-114,-40,66,-5,0,-27,7,13,-52,-122,-119,-51,4,-57,26,-65,-27,-66,-34,-122,-12,-4,-28,-10,-50,30,0,-117,-40,-22,46,-60,2,-41,-124,44,64,-23,3,-84,-127,-56,46,27,-88,-84,61,-106,-56,-100,-114,20,75,-32,-87,-73,-34,-7,-84,60,-59,34,30,-119,-87,-77,63,44,-67,8,-42, 
  /* [19][0][][] */ 1,3,38,6,24,-94,58,52,64,-77,1,-35,-103,49,-71,29,38,-110,72,24,-40,126,-68,-15,123,-91,1,-78,-101,-124,-79,16,42,-90,5,-25,-17,-80,-71,-108,16,-121,-100,-14,-100,4,124,-23,-45,12,-59,16,-54,-10,-19,-28,-3,59,-26,-45,24,-71,67,28,-84,-25,-46,-22,-30,18,58,-67,-73,-121,-69,-92,-41,-127,-8,85,24,-120,-57,39,-60,-27,-15,-27,51,17,57,29,-55,77,32,-55, 
  /* [20][0][][] */ -7,39,38,57,-83,53,-4,20,32,-1,-81,-20,-18,95,15,-68,-55,-46,-61,-34,22,0,-59,-73,127,-62,-96,23,6,-7,-49,68,67,21,-15,31,17,-34,-27,-101,-81,-38,-73,-93,-34,-53,-48,77,26,-91,-94,16,19,70,19,-10,58,35,71,48,67,-59,-39,-42,-37,-62,-57,-2,-76,-75,-11,40,-58,-79,8,2,70,44,84,98,50,-8,90,-32,46,95,-15,42,37,115,31,29,-1,13,-23,16, 
  /* [21][0][][] */ 55,76,60,-114,88,-99,57,15,-61,-104,-69,36,-24,-9,-66,-98,-123,-56,17,-30,95,-96,48,-84,-7,-105,-51,66,-2,-7,-15,-40,-12,-8,-111,-127,98,86,-126,-40,-16,0,27,-18,-124,-101,-116,60,-83,-79,-7,70,28,48,-104,-7,-70,41,-63,115,51,-86,-25,-23,69,13,-36,-91,-121,-26,11,73,-1,-25,51,55,-111,-60,52,70,6,72,28,-63,-12,-117,46,-77,-110,50,59,-113,-54,-94,71,-55, 
  /* [22][0][][] */ -8,-29,-62,-103,61,-53,68,31,-109,21,-55,-76,65,-122,-103,-53,9,54,-118,-59,43,-93,14,25,23,-45,-80,73,-79,-53,-57,-91,6,28,-20,-32,3,-51,-63,-75,-29,-6,-23,76,31,-87,25,-52,-87,-102,-2,-13,-50,-64,-72,1,-50,-22,-45,-13,87,-52,-96,-96,-54,4,-87,-42,67,35,-60,-12,-66,-32,47,-81,37,-80,44,47,63,-112,-96,-127,39,39,29,-5,-61,-1,-90,43,-26,-25,-54,28, 
  /* [23][0][][] */ 41,-127,8,54,89,-113,0,-85,-16,-82,59,80,9,-113,16,-47,90,-46,-102,91,48,-86,59,-15,-86,-24,79,1,66,30,61,-47,-44,27,18,24,89,-10,-110,17,-120,-6,15,-109,-64,-112,98,22,45,-114,-80,-113,65,-64,-48,80,-111,-12,73,17,-104,-82,-87,-11,30,8,-91,-105,51,-2,49,-71,-18,-26,-41,-99,27,-7,35,84,-47,-44,8,-104,68,-16,79,-42,-108,-1,77,-2,91,-61,-34,58, 
  /* [24][0][][] */ -81,-82,-87,-65,-72,-125,-68,-68,4,66,60,35,68,1,-41,-103,-73,15,3,-56,53,-93,-65,-29,-8,-41,45,17,64,22,-8,-63,-20,-17,22,3,-63,-72,31,-19,-70,-121,79,-16,-9,-36,0,14,-89,-50,-27,-6,43,7,43,-76,-11,50,-3,7,63,-24,-22,57,-86,47,-40,-89,-98,29,-78,-26,-50,22,56,60,16,-68,-97,-93,-66,-92,-55,-100,-27,-1,-30,-93,2,-127,-34,-62,-26,6,-72,8, 
  /* [25][0][][] */ -100,-42,-76,-18,95,-62,-93,41,-29,-126,-35,34,59,-28,-120,-17,-60,59,-9,-111,31,64,-27,-42,-64,-68,-100,48,64,-85,41,113,80,-106,30,50,105,-77,-35,-1,-72,102,-127,18,104,17,51,8,-115,67,-71,10,40,-9,-61,9,-56,60,-115,80,122,51,22,47,-2,73,-17,-8,-91,-10,-77,-110,25,-116,69,16,80,72,2,-11,42,43,-84,70,-86,-74,-114,-80,-59,-88,72,32,-122,-47,-30,-119, 
  /* [26][0][][] */ 24,-114,-45,-40,-108,-26,-35,-42,-86,-127,61,40,-87,-43,-18,-35,70,3,-94,-82,-10,53,62,-17,92,24,-16,19,-16,-19,-103,-23,-49,-70,-106,-112,-74,40,-69,65,-105,61,20,5,-80,41,-58,65,-38,-6,-34,64,-18,-58,-31,-110,55,27,26,-2,-21,-101,39,-45,66,-35,-75,26,-94,34,86,50,44,-107,-94,-18,20,-112,-99,-3,-50,33,44,-86,50,-17,-58,-14,-88,82,-5,-12,-76,79,11,47, 
  /* [27][0][][] */ 35,64,-15,-48,-63,-3,-22,4,90,85,75,-58,2,68,56,44,44,42,72,-37,-15,33,49,-7,-1,63,-61,53,51,49,-1,23,68,74,-37,-36,4,-1,-25,43,-10,63,41,71,99,77,59,127,109,62,48,15,-14,1,29,-7,124,-8,-4,5,-13,-17,35,57,38,26,-61,97,44,9,-5,42,91,-10,48,2,84,16,108,120,75,1,118,11,7,13,49,60,32,65,28,-15,48,34,75,94, 
  /* [28][0][][] */ 38,-35,42,3,-124,-83,-111,-90,-60,-119,13,31,-99,-105,-29,46,43,58,-87,32,-52,-14,-120,-92,-108,32,-101,-82,-92,-93,-35,-49,-110,-21,31,25,6,-116,-71,-5,50,1,-103,6,-102,-41,-23,3,-9,-83,-90,-51,-103,-17,12,-2,10,-42,29,8,-20,-65,-110,-29,14,26,-49,31,-98,-9,-120,-66,21,13,-40,-115,-127,-63,-100,8,-93,-105,58,-37,13,-123,16,-78,-120,-59,-64,-87,-63,14,-87,-78, 
  /* [29][0][][] */ 27,22,20,-60,-86,-8,-108,-20,127,-31,-85,-93,62,-72,-56,-53,-92,59,-5,-70,-72,-26,25,-18,16,-14,-53,-39,-98,-26,56,-20,18,-15,-79,-63,-29,52,-28,50,19,59,-56,43,-19,65,-55,-38,-2,-26,21,-88,32,-91,62,16,-83,21,-52,62,-106,51,-86,-59,-66,-64,15,48,51,-87,54,-74,66,31,25,-1,68,-68,-39,12,-25,-81,-25,-74,36,70,19,38,-45,56,38,39,-100,-5,-23,24, 
  /* [30][0][][] */ 23,19,-28,34,-55,38,-29,4,127,-3,31,-21,-62,16,45,54,4,58,85,-53,55,-66,-13,10,-26,28,-32,94,-2,-22,-43,20,-49,-38,-75,-24,53,10,43,11,96,6,4,120,87,23,67,71,2,60,35,-16,87,28,26,68,-10,-32,2,-1,-25,17,7,-3,-55,-23,-49,70,-27,80,70,0,-44,86,39,-1,-31,-10,11,-30,28,30,-15,42,-65,78,-15,108,36,-11,71,38,-10,7,51,-9, 
  /* [31][0][][] */ 58,-105,10,67,22,34,-75,-109,28,-32,-92,-100,70,-110,-60,75,-75,-100,82,20,37,21,-48,71,104,-121,11,13,-85,-87,19,75,-7,-2,-101,-22,63,-46,-82,-119,29,-85,-44,6,-19,-69,-40,5,46,13,61,-48,-124,-76,-95,1,-122,38,-18,80,-57,-26,54,-90,41,77,-62,-89,43,-127,-45,-14,-107,-53,-19,-19,-73,-67,22,62,-88,-58,34,38,28,64,-106,-9,-4,-40,-92,-70,-11,111,-29,-37, 
};
const TfArray<4, int> tensor_dimension5 = { 4, { 32,1,1,96 } };
const TfArray<32, float> quant5_scale = { 32, { 0.0026646838523447514, 0.0018925199983641505, 0.002035865094512701, 0.0022100626956671476, 0.0026850574649870396, 0.0025616236962378025, 0.0022534392774105072, 0.0016563682584092021, 0.0020941721741110086, 0.0024578007869422436, 0.0022480813786387444, 0.0023631572257727385, 0.0020755096338689327, 0.0018294437322765589, 0.0024773525074124336, 0.0021481942385435104, 0.0018062101444229484, 0.0024796801153570414, 0.0021795046050101519, 0.0021471495274454355, 0.0024368723388761282, 0.0019048707326874137, 0.0025351354852318764, 0.0020700204186141491, 0.0024723117239773273, 0.0019226347794756293, 0.0022414820268750191, 0.0030092804227024317, 0.0022576919291168451, 0.0024497252888977528, 0.0028660942334681749, 0.0020832722075283527, } };
const TfLiteAffineQuantization quant5 = { (TfLiteFloatArray*)&quant5_scale, (TfLiteIntArray*)&g0::quant4_zero, 0 };
const MODEL_SECTION(EI_MODEL_SECTION) ALIGN(16) int32_t tensor_data6[96] = { 1368, 91, 3145, 6526, 4987, -1714, 3703, -1523, -2949, -604, 3622, -2872, 3731, 5505, 1958, 1840, -811, -787, -1642, 4788, 1865, -587, 2150, -452, -527, 2922, 1424, 2297, 5918, 2324, 4551, 792, 956, 5240, 5141, 3492, -926, 2217, 2118, -5093, -421, 821, -90, 1177, -1111, 577, -1480, 934, -8558, 1543, 1108, -4817, 6850, -592, 1845, 1074, 1027, 2200, -950, -2652, -220, 1527, 125, 4030, 5884, 2510, 3541, 5140, 3348, -936, 2131, 5940, 2629, -1266, 4316, 7443, 689, -4572, 311, 663, 8163, 2079, -1058, -2348, 1085, 547, 1152, -2490, 4653, -1149, 2680, 877, 205, -2460, -342, 959, };
const TfArray<1, int> tensor_dimension6 = { 1, { 96 } };
const TfArray<96, float> quant6_scale = { 96, { 0.00012140643229940906, 0.00018702122906688601, 0.00016145104018505663, 0.00011635538976406679, 0.00012457471166271716, 0.00024872022913768888, 0.00016504639643244445, 0.0001601270487299189, 0.00014090345939621329, 0.00022364177857525647, 0.00014937878586351871, 0.00015348264423664659, 0.00014257615839596838, 0.00011246995563851669, 0.00016562594100832939, 0.00022041438205633312, 0.0002360944781685248, 0.00017220778681803495, 0.000199792833882384, 0.00012922126916237175, 0.00019367533968761563, 0.00023930237512104213, 0.0001469147828174755, 0.00021725225087720901, 0.00021925110195297748, 0.00020555469382088631, 0.00020597924594767392, 0.00011474665370769799, 0.00011889346933458, 0.00018188905960414559, 0.00010853835556190461, 0.0001968294964171946, 0.00024517232668586075, 0.00013024955114815384, 0.00011480104149086401, 0.00013428213424049318, 0.00017685220518615097, 0.00016628188313916326, 0.00017966875748243183, 0.00011500583786983043, 0.00020980251429136842, 0.00012856787361670285, 0.00021310646843630821, 0.00015724121476523578, 0.00021719392680097371, 0.00016271238564513624, 0.00019065861124545336, 0.00015838831313885748, 8.7650987552478909e-05, 0.00014940046821720898, 0.00020513091294560581, 0.00011247017391724512, 9.3556845968123525e-05, 0.00023090548347681761, 0.00015634634473826736, 0.00020760257029905915, 0.00023000135843176395, 0.0001345622877124697, 0.00020357980974949896, 0.0001414893486071378, 0.00018837957759387791, 0.00016054607112891972, 0.00020167331967968494, 0.00014826850383542478, 0.00011433507461333647, 0.00018187247042078525, 0.00010571804159553722, 0.00013536433107219636, 0.00019682689162436873, 0.00017142439901363105, 0.00018592076958157122, 0.00011093820648966357, 0.00013726837642025203, 0.00018960650777444243, 0.00015900841390248388, 9.6991723694372922e-05, 0.00010786180064314976, 0.00015046588669065386, 0.00019387691281735897, 0.00019851741672027856, 9.5194511231966317e-05, 0.0001384205388603732, 0.00015912065282464027, 0.00017404991376679391, 0.00016700716514606029, 0.00016064749797806144, 0.00019216975488234311, 0.00017335808661300689, 0.00011972342326771468, 0.00012006003817077726, 0.00020973110804334283, 0.00020397838670760393, 0.00013697257963940501, 0.00017282023327425122, 0.00024776940699666739, 0.00017099951219279319, } };
const TfArray<96, int> quant6_zero = { 96, { 0,0,0,0,0,0,0,0,0,0,0,0,0,0,0,0,0,0,0,0,0,0,0,0,0,0,0,0,0,0,0,0,0,0,0,0,0,0,0,0,0,0,0,0,0,0,0,0,0,0,0,0,0,0,0,0,0,0,0,0,0,0,0,0,0,0,0,0,0,0,0,0,0,0,0,0,0,0,0,0,0,0,0,0,0,0,0,0,0,0,0,0,0,0,0,0 } };
const TfLiteAffineQuantization quant6 = { (TfLiteFloatArray*)&quant6_scale, (TfLiteIntArray*)&quant6_zero, 0 };
const MODEL_SECTION(EI_MODEL_SECTION) ALIGN(16) int8_t tensor_data7[96*1*1*16] = { 
  /* [0][0][][] */ -23,100,-127,16,58,-33,123,68,-68,-1,43,-120,95,120,-76,20, 
  /* [1][0][][] */ -10,11,-40,-31,1,25,22,-127,37,-32,-28,-63,-19,-30,-52,-5, 
  /* [2][0][][] */ -12,-18,38,82,34,54,-93,127,-7,11,56,-64,-28,-50,-58,50, 
  /* [3][0][][] */ 77,-104,69,-6,-14,-51,-40,127,-50,63,104,63,4,44,35,26, 
  /* [4][0][][] */ -76,-41,-18,49,-71,0,-19,-106,-24,-2,64,-10,49,36,120,127, 
  /* [5][0][][] */ 127,31,-35,-13,-63,29,30,75,20,-29,45,74,101,36,-94,-6, 
  /* [6][0][][] */ -18,-54,-67,-52,-86,-11,2,-37,-70,-43,1,26,94,32,127,8, 
  /* [7][0][][] */ -68,32,-38,-94,-10,-65,-72,1,-95,55,-60,-75,-127,-60,31,103, 
  /* [8][0][][] */ 47,29,47,6,75,27,102,16,77,-32,29,-15,-127,-21,-78,11, 
  /* [9][0][][] */ -20,67,38,-37,-26,-8,30,-16,-20,37,-47,2,33,127,15,19, 
  /* [10][0][][] */ 64,24,-36,54,-11,6,58,-62,-38,-40,-70,-83,-127,-48,-14,62, 
  /* [11][0][][] */ 29,-8,52,6,-11,-38,3,92,-75,31,-11,17,-7,-17,72,127, 
  /* [12][0][][] */ -50,-55,-4,15,14,-6,127,25,-73,13,18,-13,-12,67,-34,121, 
  /* [13][0][][] */ 2,67,62,69,67,64,74,127,-42,93,-99,-62,57,84,-79,-26, 
  /* [14][0][][] */ -97,96,-6,-26,-21,-13,45,-26,-50,21,127,5,-79,-1,-22,59, 
  /* [15][0][][] */ -14,-13,-127,-53,81,-37,-75,-7,-20,-15,-22,-45,16,-67,-58,42, 
  /* [16][0][][] */ 127,-24,13,-20,46,-20,56,-31,-24,15,119,59,47,20,-58,8, 
  /* [17][0][][] */ 35,29,-15,-72,4,-45,120,-127,13,-22,-57,18,22,85,-8,35, 
  /* [18][0][][] */ 39,127,12,-47,76,-59,-27,-48,-24,113,-45,-9,-36,64,-33,-43, 
  /* [19][0][][] */ -83,-116,96,-86,34,-127,35,-27,29,49,108,97,34,-21,79,-15, 
  /* [20][0][][] */ -12,82,65,7,24,10,11,-35,77,-13,73,-59,-127,-22,-72,-28, 
  /* [21][0][][] */ -71,4,43,19,79,24,58,24,-127,26,-61,8,-46,-16,-87,-43, 
  /* [22][0][][] */ 2,-93,27,0,8,-117,127,-14,13,-70,-30,-55,48,-94,-54,-43, 
  /* [23][0][][] */ -66,-68,33,63,10,-27,22,-47,3,-44,82,12,-12,50,69,127, 
  /* [24][0][][] */ 9,-17,27,61,33,16,-60,-127,52,8,-39,30,23,2,-31,-26, 
  /* [25][0][][] */ 4,53,26,-42,-18,5,14,-27,-15,34,-54,-16,26,127,7,-3, 
  /* [26][0][][] */ -65,64,0,25,19,-92,-8,-21,3,21,28,75,13,-9,-61,127, 
  /* [27][0][][] */ 2,-127,-37,16,-50,112,30,-78,35,-32,41,-49,17,-41,-124,-35, 
  /* [28][0][][] */ -48,-12,32,80,18,0,-43,-127,-123,42,115,-5,78,-2,-27,-16, 
  /* [29][0][][] */ -127,109,-24,-24,-42,14,-126,-88,-51,-40,9,0,6,-79,-101,68, 
  /* [30][0][][] */ 39,78,-57,92,-127,-126,-70,-28,-59,4,27,-105,121,24,12,112, 
  /* [31][0][][] */ 127,40,-70,-11,-42,36,115,47,-44,-8,53,29,21,37,-29,-9, 
  /* [32][0][][] */ -18,-10,127,2,-3,85,82,19,1,-6,-28,4,-4,74,36,21, 
  /* [33][0][][] */ 12,47,-50,-32,-39,6,104,23,-14,-16,21,-68,73,127,-41,43, 
  /* [34][0][][] */ -123,-53,118,10,50,-39,127,-18,-121,45,17,-74,52,84,-81,-58, 
  /* [35][0][][] */ -19,0,-61,10,-80,111,-40,-16,-30,127,19,92,-58,50,39,43, 
  /* [36][0][][] */ 5,-57,127,-38,-37,21,-45,-20,25,29,-58,66,-8,-63,-46,32, 
  /* [37][0][][] */ 103,-32,86,-11,127,-58,-50,20,-48,118,-68,-17,-122,-37,104,-37, 
  /* [38][0][][] */ 57,52,4,-85,-26,-66,-73,27,-83,32,-71,-34,-92,-127,-71,71, 
  /* [39][0][][] */ -78,40,-52,-26,-96,-65,89,4,-127,-61,-2,72,18,10,-17,36, 
  /* [40][0][][] */ 127,48,14,-95,-45,31,26,-40,-28,-6,-53,-80,1,62,22,18, 
  /* [41][0][][] */ 127,-85,-45,-30,-3,29,-82,-50,92,-53,-6,-97,127,-81,50,-65, 
  /* [42][0][][] */ -8,-80,-45,127,-4,-102,-106,4,16,2,4,66,-94,95,-66,-9, 
  /* [43][0][][] */ -56,-52,-28,-106,-29,14,14,59,57,-127,-55,12,-30,-43,-45,67, 
  /* [44][0][][] */ -34,44,53,-46,-20,-9,34,127,126,-99,70,84,113,78,-36,-13, 
  /* [45][0][][] */ 58,57,-70,64,127,-71,-28,-48,101,-54,56,-60,-14,23,-81,51, 
  /* [46][0][][] */ -11,-42,14,-36,114,-26,26,-7,-1,127,-31,-118,37,42,-46,73, 
  /* [47][0][][] */ 107,-26,-31,-14,89,-9,-46,-79,11,127,-49,23,-19,-103,-103,-1, 
  /* [48][0][][] */ 17,33,-1,-112,6,-31,127,-117,10,14,-41,31,56,66,-7,21, 
  /* [49][0][][] */ 17,127,-68,8,32,-67,48,16,-6,-4,37,-97,-16,49,114,-76, 
  /* [50][0][][] */ 18,46,-20,6,-127,-1,-66,-52,47,65,39,21,-43,-38,9,39, 
  /* [51][0][][] */ 127,-62,-60,-22,-54,126,-93,-38,60,-36,-55,48,-29,-92,-4,43, 
  /* [52][0][][] */ -10,-73,89,102,-22,-85,-127,-51,-30,-76,-27,-11,-5,-97,11,75, 
  /* [53][0][][] */ 7,71,44,-125,-7,103,84,-29,-19,-40,5,-50,109,-127,16,64, 
  /* [54][0][][] */ 48,127,18,-16,11,-66,-105,57,24,-20,-60,111,64,97,-2,43, 
  /* [55][0][][] */ -22,-21,49,17,42,-46,90,67,-77,1,26,22,127,23,8,9, 
  /* [56][0][][] */ 110,19,8,5,-42,127,-59,-76,-31,69,-89,10,-43,123,-18,29, 
  /* [57][0][][] */ -53,-51,-42,-26,-47,-79,70,-28,-127,-11,53,34,-1,48,-1,27, 
  /* [58][0][][] */ 36,-51,61,20,7,-61,-13,9,28,-12,-127,-19,30,-40,-33,45, 
  /* [59][0][][] */ 83,26,-100,103,20,47,87,-36,-57,-33,25,-107,-127,-44,18,90, 
  /* [60][0][][] */ 16,16,-9,29,-3,-3,-18,-8,-12,-84,32,90,-47,-127,-49,-19, 
  /* [61][0][][] */ -32,21,71,-79,-88,28,-3,102,-32,-77,65,82,67,-26,38,127, 
  /* [62][0][][] */ 60,28,-12,-127,-17,18,17,-37,2,16,-39,17,27,-40,-96,-78, 
  /* [63][0][][] */ -12,-39,6,14,-34,-67,-59,13,-72,-2,-29,-15,127,-1,68,-15, 
  /* [64][0][][] */ -9,-19,-30,53,-125,-36,-15,-72,41,124,63,4,52,-71,-17,127, 
  /* [65][0][][] */ -31,-7,-30,-30,-83,67,25,-48,54,-127,93,-68,73,50,-111,58, 
  /* [66][0][][] */ -127,90,-94,-62,10,-14,-71,-69,-111,96,92,13,-124,-23,32,69, 
  /* [67][0][][] */ 10,-29,-127,-111,61,69,11,-31,-24,-10,47,-34,16,24,19,39, 
  /* [68][0][][] */ 43,2,-12,-41,-62,20,11,31,-70,75,127,-3,-1,-52,-87,11, 
  /* [69][0][][] */ 55,-89,53,-44,26,-127,-31,127,-15,101,110,87,-11,52,-8,10, 
  /* [70][0][][] */ 38,10,96,64,65,-12,127,17,31,10,-66,57,-74,31,-43,25, 
  /* [71][0][][] */ 12,40,114,-67,-127,-87,23,4,-13,-5,9,-118,-91,19,8,22, 
  /* [72][0][][] */ -52,-115,26,-87,90,7,27,38,-48,12,-127,-36,30,119,-70,89, 
  /* [73][0][][] */ 37,29,32,5,106,-98,-48,-9,-40,83,-70,38,-96,-57,127,-3, 
  /* [74][0][][] */ -72,-1,-101,-49,73,-19,-34,16,-53,-4,-127,-51,-43,-34,-56,53, 
  /* [75][0][][] */ 104,-38,61,-54,29,26,-124,-43,2,-127,67,-28,-24,-24,-18,-36, 
  /* [76][0][][] */ 26,-34,-19,127,59,109,123,-75,101,-101,49,92,17,-63,-91,21, 
  /* [77][0][][] */ -33,-53,127,-23,26,-23,-37,-126,42,1,13,63,25,43,-4,-18, 
  /* [78][0][][] */ -25,18,25,-18,11,-31,7,-2,33,1,-1,-42,-94,-40,-127,-53, 
  /* [79][0][][] */ -51,-49,-4,15,127,32,-1,11,25,25,-29,35,-38,-62,-45,-28, 
  /* [80][0][][] */ 8,-109,55,127,-14,7,-102,66,17,-11,23,-9,-71,-10,-46,28, 
  /* [81][0][][] */ 118,60,-25,65,-18,16,8,91,5,-1,127,70,119,6,82,-6, 
  /* [82][0][][] */ -83,-20,12,-42,39,-123,-105,-127,24,74,-64,-34,-46,92,-107,-54, 
  /* [83][0][][] */ 98,-15,61,-40,-43,1,-106,6,18,-127,11,-19,3,-25,9,-15, 
  /* [84][0][][] */ 31,-47,-69,41,127,52,16,15,-84,32,-111,-37,28,-16,-83,-2, 
  /* [85][0][][] */ 36,91,55,-30,107,18,58,-71,127,-24,13,-33,68,-56,-16,-16, 
  /* [86][0][][] */ 94,-50,127,57,9,-41,76,24,-45,-44,-102,-56,17,23,-68,0, 
  /* [87][0][][] */ 8,16,32,-51,84,-36,-56,10,43,-35,75,-57,-102,-127,5,12, 
  /* [88][0][][] */ -51,-33,35,-6,25,27,-41,-67,11,-14,-89,-127,-52,-56,-21,-27, 
  /* [89][0][][] */ -64,25,36,-54,47,30,-116,32,127,4,-98,-20,-31,-80,-78,-40, 
  /* [90][0][][] */ -16,-38,-39,-78,127,16,-58,36,42,60,35,-9,38,4,-56,-16, 
  /* [91][0][][] */ -6,-18,38,75,-28,13,14,109,-39,-81,-7,-79,-26,94,-11,127, 
  /* [92][0][][] */ -25,86,-2,2,-39,54,-120,41,-59,-18,96,16,-49,127,75,42, 
  /* [93][0][][] */ -7,72,-77,-69,85,121,-70,18,79,71,80,40,-127,67,-64,68, 
  /* [94][0][][] */ 34,86,86,-1,-127,-39,21,-25,21,-28,30,-35,-60,-35,13,-26, 
  /* [95][0][][] */ -11,-15,50,24,127,16,-33,31,56,-29,-105,50,-28,17,43,-56, 
};
const TfArray<4, int> tensor_dimension7 = { 4, { 96,1,1,16 } };
const TfArray<96, float> quant7_scale = { 96, { 0.0011759055778384209, 0.0018114304402843118, 0.0015637654578313231, 0.0011269827373325825, 0.0012065925402566791, 0.0024090281222015619, 0.0015985890058800578, 0.0015509416116401553, 0.0013647478772327304, 0.0021661259233951569, 0.0014468373265117407, 0.0014865859411656857, 0.0013809491647407413, 0.0010893496219068766, 0.0016042022034525871, 0.002134866314008832, 0.0022867389488965273, 0.0016679519321769476, 0.0019351323135197163, 0.0012515976559370756, 0.0018758801743388176, 0.0023178097326308489, 0.0014229717198759317, 0.0021042388398200274, 0.0021235991735011339, 0.0019909399561583996, 0.0019950519781559706, 0.0011114010121673346, 0.0011515658115968108, 0.0017617217963561416, 0.0010512693552300334, 0.0019064303487539291, 0.0023746641818434, 0.0012615573359653354, 0.0011119277914986014, 0.0013006157241761684, 0.0017129364423453808, 0.0016105554532259703, 0.0017402166267856956, 0.0011139113921672106, 0.0020320829935371876, 0.0012452690862119198, 0.00206408416852355, 0.0015229902928695083, 0.0021036739926785231, 0.0015759824309498072, 0.0018466609762981534, 0.0015341007383540273, 0.00084896071348339319, 0.0014470473397523165, 0.0019868353847414255, 0.0010893517173826694, 0.00090616301167756319, 0.0022364798933267593, 0.0015143229393288493, 0.0020107750315219164, 0.0022277228999882936, 0.0013033292489126325, 0.0019718117546290159, 0.0013704226585105062, 0.001824587001465261, 0.0015550001990050077, 0.0019533461891114712, 0.0014360834611579776, 0.0011074146023020148, 0.0017615611432120204, 0.001023952616378665, 0.001311097526922822, 0.0019064050866290927, 0.0016603643307462335, 0.0018007718026638031, 0.0010745135368779302, 0.0013295395765453577, 0.0018364706775173545, 0.0015401069540530443, 0.00093943218234926462, 0.0010447164531797171, 0.0014573666267096996, 0.0018778324592858553, 0.0019227790180593729, 0.00092202494852244854, 0.0013406990328803658, 0.0015411940403282642, 0.0016857942100614309, 0.001617580302990973, 0.0015559826279059052, 0.0018612975254654884, 0.0016790934605523944, 0.0011596045223996043, 0.0011628648499026895, 0.0020313914865255356, 0.0019756723195314407, 0.001326674479059875, 0.0016738839913159609, 0.0023998187389224768, 0.0016562490491196513, } };
const TfLiteAffineQuantization quant7 = { (TfLiteFloatArray*)&quant7_scale, (TfLiteIntArray*)&g0::quant6_zero, 0 };
const MODEL_SECTION(EI_MODEL_SECTION) ALIGN(16) int32_t tensor_data8[16] = { 8338, 14058, -2521, 2634, 351, 9573, -5830, 6040, 17284, -3205, -5939, 10073, -11904, 9891, 3166, 8843, };
const TfArray<1, int> tensor_dimension8 = { 1, { 16 } };
const TfArray<16, float> quant8_scale = { 16, { 4.3791915231849998e-05, 5.7243709306931123e-05, 4.9135633162222803e-05, 5.2160721679683775e-05, 6.4400672272313386e-05, 5.0492595619289204e-05, 5.2864794270135462e-05, 5.1766946853604168e-05, 7.0352085458580405e-05, 5.5021104344632477e-05, 4.6237171773100272e-05, 4.4074527977500111e-05, 3.8360649341484532e-05, 6.1174832808319479e-05, 8.3712227933574468e-05, 4.9263951950706542e-05, } };
const TfArray<16, int> quant8_zero = { 16, { 0,0,0,0,0,0,0,0,0,0,0,0,0,0,0,0 } };
const TfLiteAffineQuantization quant8 = { (TfLiteFloatArray*)&quant8_scale, (TfLiteIntArray*)&quant8_zero, 0 };
const MODEL_SECTION(EI_MODEL_SECTION) ALIGN(16) int8_t tensor_data9[16*1*1*96] = { 
  /* [0][0][][] */ -103,32,53,-50,-54,4,-83,-36,-40,28,11,-23,18,27,26,-21,24,-10,127,15,38,-67,125,108,75,14,22,18,-66,-103,-96,37,-32,-66,51,22,32,10,10,30,-22,-6,-67,30,-78,-16,-14,97,-15,24,-38,-37,-26,-9,52,-57,-108,18,12,89,70,39,6,-12,-3,-31,-64,45,-78,-76,2,0,20,-4,-92,-51,-59,10,-47,-9,-69,60,76,-63,23,68,14,39,52,-40,-6,-38,-49,-17,-47,28, 
  /* [1][0][][] */ 55,41,44,-67,-43,7,-22,37,-9,33,20,-87,28,-14,-48,-50,-24,-3,-83,27,-26,-78,42,36,3,-76,7,-45,73,-122,116,-78,51,33,-32,69,21,91,-31,-60,40,20,-19,-30,3,49,-127,-54,-63,-69,-27,-12,14,-22,-35,59,46,-20,-34,22,24,34,-24,-79,-11,27,-46,-12,26,-15,-112,-14,-36,2,4,-81,10,48,49,-69,-28,-23,-75,-9,24,0,-44,38,-87,7,-75,64,-9,48,-70,33, 
  /* [2][0][][] */ 49,-14,25,37,-3,-89,72,14,-29,7,-20,9,-48,-12,18,-43,-100,-73,-43,48,-17,-25,-61,8,-9,-42,-2,-7,-38,46,-30,86,-65,127,-53,4,-22,-8,-6,-4,-79,67,71,15,-55,6,3,-5,56,-4,-20,-35,69,-40,-40,61,48,-15,24,-20,-5,28,-35,8,68,-12,7,-24,26,49,-27,-22,31,53,71,33,42,-89,53,62,85,2,-59,16,-39,13,9,59,-4,23,-25,43,-27,49,-27,14, 
  /* [3][0][][] */ -6,-22,-14,-13,4,-11,21,-55,-18,44,28,70,30,0,-45,36,-2,-15,36,21,19,127,38,-30,2,36,-34,11,83,-21,56,-14,-26,42,-16,-6,10,45,21,3,-71,-11,-29,20,-33,25,31,4,-19,-57,5,-17,53,-84,-10,-49,21,74,-34,-17,-13,-20,-49,-3,12,46,-33,-16,-16,5,22,-67,-46,-32,44,-18,21,6,-51,-23,-16,-2,-40,3,-21,-46,26,-24,-14,5,7,0,57,25,-29,51, 
  /* [4][0][][] */ 63,9,-50,1,44,44,-45,3,-2,56,88,-21,-25,5,-9,-34,26,6,-22,33,42,-67,81,87,-58,9,-127,-9,-34,-44,-3,21,-30,-64,14,64,-3,25,29,20,-52,-40,36,-18,-14,28,-52,25,-16,65,22,3,29,-6,-61,1,34,-11,4,-4,73,6,40,2,-38,36,-47,17,-50,17,-66,68,36,-72,-35,-29,-1,-31,-2,-8,-53,56,-61,0,-14,44,19,-60,62,-6,28,8,-86,-42,57,34, 
  /* [5][0][][] */ -67,52,56,4,53,-12,52,-28,-11,34,-19,-52,32,-5,-18,-48,11,-37,39,7,-107,-49,-62,35,-63,-1,28,-7,28,-81,-24,65,81,99,-11,35,-11,16,40,-28,-57,101,72,-47,-20,85,28,-33,-11,32,-36,17,25,-53,21,-107,66,-36,-82,-59,70,106,-32,-36,85,-24,-102,-40,-79,-33,-93,0,-5,30,-32,-24,-12,-42,-55,-27,127,-36,22,-95,-77,70,44,-23,-45,55,36,-20,-56,50,9,107, 
  /* [6][0][][] */ 88,-18,-84,-3,1,-67,81,82,-20,76,-19,63,-127,-102,45,91,9,-58,8,-3,7,-34,-25,-41,-46,28,80,9,16,49,83,-39,34,0,49,-88,16,11,31,63,-2,23,-40,-37,28,-51,-93,6,51,-105,-16,60,4,51,-3,-82,83,70,25,5,-76,68,-91,26,26,48,-8,79,30,17,-20,-19,-9,31,100,37,35,25,51,-88,-27,-66,-57,51,8,-21,54,-3,-10,45,37,33,-43,24,-32,127, 
  /* [7][0][][] */ 21,69,-40,-61,-48,-21,19,2,-59,36,-51,-69,-19,28,23,-14,-55,-64,-42,63,9,127,4,7,-9,16,9,29,36,35,86,-43,40,33,-32,10,16,2,0,34,-49,-13,8,-67,9,-46,77,-19,33,-59,-73,-15,-37,26,-24,-10,31,3,-102,26,-12,100,9,-14,-40,-1,-55,-2,-37,-16,-102,23,3,37,-40,34,-61,43,18,-57,-13,-42,44,-74,32,-19,-19,8,-17,86,-75,17,51,-26,-59,7, 
  /* [8][0][][] */ 19,86,-46,24,-7,-2,-100,20,-76,-31,9,-17,-56,28,20,93,23,-27,13,0,48,-25,27,-6,-26,59,-5,7,-14,-12,-46,-17,2,-69,-32,-60,-40,22,44,-5,-15,-27,27,13,-41,-19,-14,-29,-23,-10,41,55,-22,-18,-61,86,-28,35,-13,-26,-17,16,28,38,-36,-25,-50,0,-48,-2,-17,19,-8,-44,-127,-3,-64,40,-67,-54,-36,-14,-25,-35,3,23,25,21,25,51,-57,-26,-110,-116,33,-43, 
  /* [9][0][][] */ -38,26,-63,70,-57,-63,86,69,-29,54,-37,112,-11,-4,42,120,-2,5,59,31,3,33,11,-109,-59,13,20,6,22,-8,60,32,-46,16,10,-127,23,-9,-32,-19,1,23,49,-35,-1,-10,36,34,34,84,38,6,-42,-74,-32,15,10,-20,65,-32,-85,47,-78,-13,75,-39,-13,-10,-58,39,56,23,-28,93,-13,-41,-15,-3,-50,7,86,-15,31,-16,28,-38,-25,-21,-71,25,-4,10,84,28,-62,-11, 
  /* [10][0][][] */ 39,7,-30,-3,-57,-61,82,0,-13,-15,-22,15,-70,-3,17,-23,-83,-51,12,32,13,53,-14,-6,-54,98,27,13,-60,-63,-10,-27,53,-16,45,1,59,-73,67,127,34,-54,3,0,-28,-102,13,80,31,77,-61,-24,8,10,-7,65,24,-68,59,43,-31,33,-72,-12,-9,-91,32,30,17,-9,8,18,99,41,37,-98,48,-73,34,9,-22,49,12,13,-37,-36,-4,48,-61,2,26,55,71,54,-39,0, 
  /* [11][0][][] */ -93,-25,54,-70,0,-22,-32,-43,34,-32,27,-3,-20,-23,7,6,-55,9,64,8,-50,22,-90,-94,19,1,-41,45,32,-73,58,-33,8,-8,-3,-45,-80,12,-127,34,-67,76,-62,69,13,-12,13,-21,0,-23,-82,-57,6,36,82,-19,-31,-81,27,-40,-33,-75,-25,-109,6,-70,57,57,125,23,65,-18,-53,-28,44,-49,98,30,39,41,41,-5,-18,94,71,1,-35,-29,-100,-56,-2,20,55,32,49,47, 
  /* [12][0][][] */ 12,-24,7,-34,11,91,9,34,23,82,7,64,39,57,27,-17,-84,52,13,58,117,13,36,-93,25,46,-82,-53,-21,89,21,-3,10,9,-22,-55,41,-10,-48,-24,20,-13,39,48,-34,32,14,8,-86,32,-13,40,-8,-52,-11,31,-37,49,16,69,8,-110,10,-127,-24,59,-22,-65,1,-36,90,-15,-31,28,-10,36,9,29,-98,4,-2,51,123,19,-11,61,-42,-65,56,22,-80,69,102,15,-30,-119, 
  /* [13][0][][] */ 5,50,-1,-59,-34,-15,17,-34,13,-11,-59,-98,77,-113,-19,-74,-27,-28,-86,-10,-105,-23,24,81,-32,-2,120,21,21,-22,66,24,-5,7,-95,124,-46,-38,15,-66,127,14,-11,4,-14,-96,57,-19,86,-19,-24,44,32,-1,-14,68,73,-30,-33,-7,46,47,-6,-64,-38,25,-16,30,-70,-32,-73,-5,-62,5,-22,-95,-94,34,21,93,-17,72,40,-100,55,62,35,-4,-18,-17,-14,19,-56,33,-40,-12, 
  /* [14][0][][] */ -43,30,-51,-12,50,54,-55,-10,12,-23,64,-2,29,-18,-20,-58,-74,13,26,127,-7,5,-26,8,-5,25,-17,76,13,-25,-17,-3,30,16,-24,-14,1,57,57,15,66,0,19,7,-12,-47,76,-4,-3,-13,-5,-8,45,6,-38,43,11,61,-57,-5,-41,-65,-61,-81,6,-54,-31,-3,-52,53,9,11,-3,-19,-31,-54,52,-33,-32,-8,37,27,-16,-12,-12,11,-15,-8,-26,58,45,12,30,-27,-49,-45, 
  /* [15][0][][] */ -98,-33,37,-37,-6,-59,-24,-89,-27,27,-2,75,14,-38,42,77,-119,-46,9,-59,3,-6,-44,-94,42,11,64,-31,-66,-127,-60,19,-59,80,82,-104,14,-34,14,-8,-3,-11,33,-14,7,-20,92,121,-39,-13,14,-28,-11,45,3,-49,-92,-9,110,4,-53,21,-106,41,-71,-57,23,14,62,-60,122,-48,43,-52,-20,-66,43,5,65,23,-6,99,40,17,-16,-47,-112,9,-12,-55,-76,44,83,-43,-19,79, 
};
const TfArray<4, int> tensor_dimension9 = { 4, { 16,1,1,96 } };
const TfArray<16, float> quant9_scale = { 16, { 0.0018611563136801124, 0.0024328576400876045, 0.0020882643293589354, 0.0022168306168168783, 0.0027370285242795944, 0.0021459353156387806, 0.00224675377830863, 0.0022000952158123255, 0.0029899636283516884, 0.0023383968509733677, 0.0019650796893984079, 0.0018731673480942845, 0.0016303275479003787, 0.0025999303907155991, 0.0035577695816755295, 0.0020937179215252399, } };
const TfLiteAffineQuantization quant9 = { (TfLiteFloatArray*)&quant9_scale, (TfLiteIntArray*)&g0::quant8_zero, 0 };
const MODEL_SECTION(EI_MODEL_SECTION) ALIGN(16) int32_t tensor_data10[96] = { -3935, 1003, -1299, -5421, 4120, 3199, -1372, -1624, 625, 2570, 11161, -791, -1417, 10478, 5599, -5554, 16061, 3021, -4014, 1027, 253, -4516, 1018, -1985, 398, -3638, 3592, -3463, -1762, -7321, 219, 1357, 10095, -3970, -642, 7, -482, -1527, 120, 5849, -1876, -208, 258, -4133, 15844, 8846, -2237, 15646, -2242, 7231, 7002, -579, -504, 1579, -871, 8169, -1709, -1380, 11014, 12209, 4389, 8808, 6427, -5046, -1526, 1561, -2741, -167, -2117, -1527, 1544, 1457, 10377, 1793, -1078, 9022, 63, 1201, 8575, -2516, -2231, 14553, 2874, 3293, 11735, -2083, -5116, -4265, 6638, -5544, 11957, 1294, -4199, -2633, -3874, -3190, };
const TfArray<96, float> quant10_scale = { 96, { 0.0002066122688120231, 0.0002375181793468073, 0.00013677308743353933, 0.00012854377564508468, 0.00020103728456888348, 0.00025176323833875358, 0.00032538973027840257, 0.00020442780805751681, 0.00035439207567833364, 0.00014298243331722915, 9.9800497991964221e-05, 0.00034196683554910123, 0.00022773111413698643, 0.00012709222210105509, 0.00014427254791371524, 0.00013681402197107673, 0.00012882251758128405, 0.00021199526963755488, 0.00016972651064861566, 0.00012185012019472197, 0.00023662652529310435, 0.00024972701794467866, 0.00024182323249988258, 0.00024675275199115276, 0.00077681936090812087, 0.00023605019669048488, 0.00027547002537176013, 0.00012985656212549657, 0.0002260072942590341, 0.00012160488404333591, 0.00036766985431313515, 0.0002047020971076563, 0.00015966757200658321, 0.00013108520943205804, 0.00024017943360377103, 0.00033001168048940599, 0.00016810849774628878, 0.00032034303876571357, 0.00038181804120540619, 0.0001348016521660611, 0.00019915726443286985, 0.00021097666467539966, 0.00033768091816455126, 0.00015456577239092439, 8.0336059909313917e-05, 0.00013696117093786597, 0.00027304352261126041, 0.0001159213061328046, 0.00023447145940735936, 0.00014110293705016375, 0.00014011349412612617, 0.00017955467046704143, 0.00019398849690333009, 0.00016080966452136636, 0.00028390373336151242, 0.00017951814515981823, 0.00015968138177413493, 0.00022026935766916722, 0.00016403725021518767, 0.00010470555571373552, 0.0002203422918682918, 0.00018614561122376472, 0.00015731547318864614, 0.00012128552771173418, 0.00020632568339351565, 0.00036376030766405165, 0.00024138943990692496, 0.00024676925386302173, 0.00024372896587010473, 0.00018899935821536928, 0.00035721866879612207, 0.00016950091230683029, 0.00010341688903281465, 0.00022158259525895119, 0.00022415183775592595, 0.00015141566109377891, 0.00013109040446579456, 0.00016759175923652947, 0.00015813372738193721, 0.00027387036243453622, 0.00033102050656452775, 0.00011858167999889702, 0.00023417832562699914, 0.00018963555339723825, 8.0745398008730263e-05, 0.00025543218362145126, 0.00014733412535861135, 0.00020800161291845143, 0.00017806843970902264, 0.00017630263755563647, 9.1346533736214042e-05, 0.00028266420122236013, 0.00026710858219303191, 0.00024914415553212166, 0.00011761867790482938, 0.00030132516985759139, } };
const TfLiteAffineQuantization quant10 = { (TfLiteFloatArray*)&quant10_scale, (TfLiteIntArray*)&g0::quant6_zero, 0 };
const MODEL_SECTION(EI_MODEL_SECTION) ALIGN(16) int8_t tensor_data11[1*3*3*96] = { 
  /* [0][0][][] */ 47,95,-4,32,-51,-24,48,49,27,-99,-121,84,-40,-28,47,-13,-127,69,10,14,12,102,36,52,-11,9,-68,-47,-17,36,14,9,-65,46,-58,81,20,20,-14,-22,26,-50,-14,39,-95,-73,32,-127,6,-11,-43,-30,14,52,-1,11,-78,-35,-53,-127,-85,-20,-112,-19,-11,36,84,8,-52,4,49,-32,-3,7,58,12,36,-45,-110,55,19,-116,89,-61,-67,-38,20,-4,-96,22,-124,41,89,12,82,-3, -20,-36,-17,80,-21,119,-6,19,33,15,-124,127,-51,-29,-74,119,-109,87,12,87,104,42,96,127,33,45,-10,37,29,127,-4,-127,30,127,17,91,46,127,-39,-124,127,6,72,74,-30,-127,127,-43,-26,-127,-38,-43,18,127,-1,-127,13,41,-127,-112,-37,-111,-49,75,-17,65,123,-8,-27,127,127,38,-44,7,-21,-86,58,-78,-16,127,27,-65,127,-87,-127,-15,127,66,95,117,-127,0,127,-11,127,49, 67,-119,-21,48,-53,-21,-18,33,-19,10,-67,-18,-13,2,-7,-105,-77,-9,-21,73,-8,46,66,79,13,-16,8,80,-14,-1,-12,-82,-50,-68,-29,88,-9,-19,-4,23,15,27,-16,45,7,13,10,-25,22,-48,-25,-25,30,-39,-10,-8,59,-76,-36,-85,-127,56,-101,-19,28,17,-4,10,-18,-11,8,-3,-39,-23,-3,12,44,-39,-65,10,12,-115,2,-25,-58,-9,11,18,-123,-68,21,44,32,43,36,6, 
  /* [0][1][][] */ 117,-15,49,68,-29,-74,96,47,-45,-127,-81,119,33,-127,-12,73,-9,-97,85,-11,-84,-9,-127,-40,-28,76,-127,127,-65,59,118,28,-10,105,21,121,-127,57,-27,-70,69,-127,32,84,-127,-5,25,-127,-77,-41,-127,-10,127,-100,103,-7,-127,22,-49,-29,30,-54,36,43,-80,-30,127,-67,-52,33,-33,-127,-109,49,113,-43,127,99,-114,-24,127,-103,-54,117,-11,12,31,53,-27,27,-72,4,13,-66,52,-21, -127,68,-58,127,-127,-127,-127,-127,51,6,9,-1,-109,-90,-22,127,-54,-127,127,127,29,-127,-100,68,-127,127,-4,97,-65,-8,-127,18,-127,89,127,-29,6,96,127,-59,-21,14,35,16,-77,-98,-45,-112,11,-116,-83,127,46,64,47,-55,19,20,78,-73,15,11,-76,127,6,-127,71,127,24,36,-74,-74,-70,65,-127,-127,93,127,117,-30,-58,59,-119,63,-54,-84,107,127,100,127,-122,-127,-63,-36,57,127, 84,-6,61,83,-21,-39,19,51,-66,56,-99,2,25,-8,-127,36,49,-57,15,-19,-127,-6,-55,-38,3,19,96,-32,127,91,21,-121,-43,-125,-20,127,-83,32,-53,-5,5,64,35,127,-1,43,14,-107,127,-78,-72,-25,65,-123,-127,33,99,-2,-100,-3,24,11,29,51,127,-30,-67,10,-45,-19,-26,-48,-127,-127,-27,-65,-20,-46,-127,-19,-49,-127,-42,127,-54,43,2,26,-66,-47,7,28,5,127,35,-9, 
  /* [0][2][][] */ 36,-127,49,-8,-11,8,46,41,-23,-68,-46,-104,44,-31,14,69,-73,12,5,6,-7,90,-9,-39,10,25,-4,-28,-35,-2,-24,-17,3,9,-36,-16,70,16,-17,-29,13,9,-15,-33,-68,6,1,43,2,59,5,-2,-30,-10,-32,7,4,10,24,4,68,-31,57,-29,-26,36,-24,-15,20,23,0,61,-16,-10,20,-3,-47,-40,-98,10,26,-23,-23,-25,-72,54,-10,7,-116,42,16,21,14,-8,-18,-31, -35,6,127,-36,125,86,-10,33,-127,-6,-127,-52,127,-47,-33,27,-17,47,-7,-93,36,63,65,-15,76,-17,-25,7,29,74,12,-1,-38,67,1,-47,89,84,6,-127,-2,-9,-127,-12,-50,28,-8,-46,12,-13,10,42,39,-65,-16,-59,-33,127,-8,-46,66,-127,127,34,-11,18,-91,13,127,14,8,85,-65,-11,-6,-27,-5,-113,-33,-16,5,-70,-63,-88,17,127,18,19,59,55,45,13,-2,3,-23,-5, 13,70,0,-9,-25,-23,1,42,-3,33,-23,-34,25,-23,-33,10,-62,-1,-23,57,-15,54,2,-24,16,23,11,6,21,15,-38,-94,-20,7,-18,-55,58,-9,-24,24,15,31,16,10,-65,-29,2,13,0,60,13,-19,3,-26,20,-7,13,12,12,-3,35,58,45,-41,41,19,-96,10,40,25,-25,69,34,-38,1,-10,-51,-42,-3,14,4,-65,-41,-27,-66,48,-22,-6,-127,40,2,5,5,28,-5,-24, 
};
const TfArray<4, int> tensor_dimension11 = { 4, { 1,3,3,96 } };
const TfArray<96, float> quant11_scale = { 96, { 0.00878102146089077, 0.010094522498548031, 0.0058128563687205315, 0.0054631102830171585, 0.0085440846160054207, 0.010699937120079994, 0.0138290636241436, 0.0086881816387176514, 0.015061663463711739, 0.0060767531394958496, 0.0042415210045874119, 0.014533590525388718, 0.009678572416305542, 0.0054014194756746292, 0.006131583359092474, 0.0058145960792899132, 0.0054749567061662674, 0.009009798988699913, 0.0072133764624595642, 0.0051786298863589764, 0.010056626982986927, 0.010613398626446724, 0.010277487337589264, 0.01048699114471674, 0.033014822751283646, 0.01003213319927454, 0.011707475408911705, 0.0055189034901559353, 0.0096053099259734154, 0.0051682074554264545, 0.0156259685754776, 0.0086998390033841133, 0.0067858714610338211, 0.0055711213499307632, 0.010207626037299633, 0.014025496318936348, 0.0071446108631789684, 0.013614579103887081, 0.016227265819907188, 0.0057290703989565372, 0.0084641836583614349, 0.0089665083214640617, 0.014351438730955124, 0.0065690451301634312, 0.0034142823424190283, 0.0058208499103784561, 0.011604350060224533, 0.0049266554415225983, 0.0099650369957089424, 0.0059968745335936546, 0.0059548234567046165, 0.0076310732401907444, 0.0082445107400417328, 0.0068344105966389179, 0.012065907940268517, 0.0076295207254588604, 0.0067864586599171162, 0.0093614477664232254, 0.0069715827703475952, 0.0044499859213829041, 0.0093645472079515457, 0.0079111885279417038, 0.0066859074868261814, 0.0051546348258852959, 0.0087688416242599487, 0.015459812246263027, 0.010259050875902176, 0.010487693361938, 0.010358480736613274, 0.0080324728041887283, 0.01518179289996624, 0.0072037884965538979, 0.0043952176347374916, 0.0094172600656747818, 0.0095264529809355736, 0.0064351651817560196, 0.0055713420733809471, 0.0071226493455469608, 0.0067206835374236107, 0.011639490723609924, 0.014068371616303921, 0.0050397212617099285, 0.0099525786936283112, 0.0080595109611749649, 0.0034316792152822018, 0.010855867527425289, 0.0062617002986371517, 0.0088400682434439659, 0.0075679086148738861, 0.0074928617104887962, 0.003882227698341012, 0.012013228610157967, 0.011352114379405975, 0.010588626377284527, 0.004998793825507164, 0.012806319631636143, } };
const TfLiteAffineQuantization quant11 = { (TfLiteFloatArray*)&quant11_scale, (TfLiteIntArray*)&g0::quant6_zero, 3 };
const MODEL_SECTION(EI_MODEL_SECTION) ALIGN(16) int32_t tensor_data12[96] = { 3256, 4166, 876, -1332, 5922, 8795, 9224, 1310, -1276, 9447, 1574, -5702, 3280, 6558, 30, -48, 4696, 11142, -198, -496, 6311, 15703, 9123, -1387, -5677, -1584, 18198, 134, 1695, 910, 13573, -847, 8903, 2312, 4713, -3969, 532, -5404, 466, 2391, 2761, 1203, 1362, -432, 1163, 2154, 2904, 5384, 3160, 2184, 4101, 2140, -2867, 2682, 1234, 2710, 1300, 1608, 14135, 1907, -1673, 9038, 5122, 4158, 3681, 5011, -3981, 2408, 5225, -856, 6531, 1139, 3430, 2629, 2670, 2441, -386, 2713, 1958, 4517, 1881, 1921, 8821, 519, 1176, 3405, 472, -590, 24121, -353, 514, -809, 9026, 1873, 369, -1038, };
const TfArray<96, float> quant12_scale = { 96, { 0.00021017742983531207, 9.4460163381882012e-05, 0.00013615607167594135, 0.00014853615721222013, 0.00012832196080125868, 9.4361952506005764e-05, 9.8143973445985466e-05, 0.00016822545148897916, 0.00012421415885910392, 9.1799513029400259e-05, 0.00014973264478612691, 0.00010642073175404221, 0.00014971676864661276, 8.5350831795949489e-05, 0.00016033362771850079, 0.00015327808796428144, 0.00015446383622474968, 7.285495667019859e-05, 0.0001834011054597795, 0.00014611393271479756, 9.7121446742676198e-05, 5.885394784854725e-05, 9.5445640909019858e-05, 0.00013288804620970041, 0.00011189529323019087, 0.00011290735710645095, 5.1408238505246118e-05, 0.00017180663417093456, 0.00013555366604123265, 0.00014554300287272781, 6.7409855546429753e-05, 0.00025080930208787322, 8.9810775534715503e-05, 0.00017229431250598282, 0.00014015263877809048, 0.00013457266322802752, 0.00021553609985858202, 0.00011718116729753092, 0.00013221486005932093, 0.00015678659838158637, 0.00015133786655496806, 0.00020733723067678511, 0.00022215036733541638, 0.00021823428687639534, 0.00020215923723299056, 0.00015057015116326511, 0.00015891603834461421, 0.0001278918789466843, 0.00016642583068460226, 0.00022007386723998934, 0.000158339535119012, 0.00020458652579691261, 0.00012531154789030552, 0.0001564351114211604, 0.00015700541553087533, 0.0001652796781854704, 0.00024099287111312151, 0.0001804987114155665, 5.6074575695674866e-05, 0.00013597917859442532, 0.00015422172145918012, 9.2369773483369499e-05, 0.00010013812425313517, 0.00013276499521452934, 0.00013335926632862538, 0.00013126447447575629, 0.00013291763025335968, 0.00014436738274525851, 0.00012159176549175754, 0.00019901104678865522, 0.00010976154590025544, 0.00013531091099139303, 0.00012163849896751344, 0.00014565938909072429, 0.00017885002307593822, 0.00011168869968969375, 0.00022396459826268256, 0.00011551167699508369, 0.00013634245260618627, 0.00012674754543695599, 0.00021182565251365304, 0.00018368379096500576, 9.0946487034671009e-05, 0.00015190482372418046, 0.00025475051370449364, 0.0001826159714255482, 0.00020930284517817199, 0.00021991574612911791, 4.1701943700900301e-05, 0.00020850860164500773, 0.00022402932518161833, 0.00020824465900659561, 8.1695245171431452e-05, 0.0001862727222032845, 0.00018626435485202819, 0.00013904437946621329, } };
const TfLiteAffineQuantization quant12 = { (TfLiteFloatArray*)&quant12_scale, (TfLiteIntArray*)&g0::quant6_zero, 0 };
const MODEL_SECTION(EI_MODEL_SECTION) ALIGN(16) int8_t tensor_data13[96*1*1*16] = { 
  /* [0][0][][] */ -59,75,-42,-44,0,-19,-13,-3,27,-13,-6,-83,77,-54,-10,-127, 
  /* [1][0][][] */ -104,13,-127,-54,-91,11,-10,20,-31,22,73,-50,20,94,29,63, 
  /* [2][0][][] */ -25,-20,-62,25,8,-57,28,-50,-66,127,53,23,23,78,-25,84, 
  /* [3][0][][] */ -31,-73,28,-31,-55,20,-36,-127,13,11,17,-49,-78,-40,-125,-57, 
  /* [4][0][][] */ 49,-5,-24,35,-83,19,-127,41,-10,30,14,50,-7,18,-31,-97, 
  /* [5][0][][] */ -51,74,-53,10,10,-59,-12,-78,76,-46,16,13,4,-127,-72,-60, 
  /* [6][0][][] */ -14,-30,-19,24,-99,72,33,-32,-31,-65,127,-21,-15,6,-113,32, 
  /* [7][0][][] */ -8,106,127,-51,76,53,-17,-48,55,49,-109,1,61,13,26,46, 
  /* [8][0][][] */ -36,-16,46,9,67,17,89,127,-52,-27,-61,-71,23,105,-84,-84, 
  /* [9][0][][] */ 26,61,52,20,-127,-16,-53,-74,40,44,52,7,-52,-64,50,-14, 
  /* [10][0][][] */ -19,-127,22,-60,-110,69,52,19,-20,-76,0,12,-32,50,-98,30, 
  /* [11][0][][] */ 87,-45,-21,104,-114,-49,31,14,111,95,-13,67,30,-68,5,127, 
  /* [12][0][][] */ -34,-74,127,-17,65,-39,20,25,70,2,57,77,-20,-9,-82,19, 
  /* [13][0][][] */ -9,-8,5,8,-10,-9,97,56,-123,-3,33,-3,14,127,116,-48, 
  /* [14][0][][] */ 110,-73,127,-22,86,68,85,80,56,84,66,36,96,-36,35,-31, 
  /* [15][0][][] */ 28,127,-5,-36,49,121,-70,58,-65,-34,-62,-21,-48,116,-7,-79, 
  /* [16][0][][] */ -52,73,105,-48,10,71,32,-13,11,8,-10,29,74,-6,76,127, 
  /* [17][0][][] */ -11,127,93,-66,-13,-75,-27,-62,-49,74,19,84,-90,-53,96,-11, 
  /* [18][0][][] */ -83,8,-68,-66,96,48,-42,-48,22,77,127,48,4,77,-29,20, 
  /* [19][0][][] */ 39,127,104,61,37,-46,-29,-11,-31,100,66,82,58,39,-47,61, 
  /* [20][0][][] */ 119,8,63,115,-127,-69,-26,67,-1,-72,-116,-42,119,-105,77,31, 
  /* [21][0][][] */ -116,-40,-61,105,-77,13,-127,82,-26,10,75,14,-63,74,-24,66, 
  /* [22][0][][] */ 14,29,-92,-64,127,-19,-37,30,24,102,64,54,-21,45,15,29, 
  /* [23][0][][] */ -63,10,-49,2,21,70,98,82,-29,127,-13,-30,-15,59,-41,-31, 
  /* [24][0][][] */ 49,-72,35,18,127,69,105,-51,64,40,66,41,-85,14,10,15, 
  /* [25][0][][] */ 95,-76,53,18,54,11,-18,86,121,-64,-51,5,127,-78,51,54, 
  /* [26][0][][] */ 70,55,100,103,45,-35,-71,1,-13,34,43,127,47,-51,43,-28, 
  /* [27][0][][] */ -36,23,-88,9,-3,127,40,-97,50,-53,82,41,58,-3,79,69, 
  /* [28][0][][] */ -57,34,-53,-106,51,-62,25,-36,-127,101,-44,18,-32,21,-8,48, 
  /* [29][0][][] */ 110,115,-53,27,41,85,-28,-39,72,70,-19,82,-127,0,-31,61, 
  /* [30][0][][] */ -62,93,-127,-91,98,-31,-2,38,-53,72,-87,-23,1,66,-52,103, 
  /* [31][0][][] */ -4,-127,75,33,41,-26,-81,32,6,-20,17,-55,-49,31,0,104, 
  /* [32][0][][] */ -34,96,-19,9,-127,80,-17,35,-3,-92,44,-64,56,59,62,11, 
  /* [33][0][][] */ -92,-44,87,127,-12,2,-60,12,-13,-46,37,-16,14,-13,-6,91, 
  /* [34][0][][] */ -2,21,-79,-127,114,-9,-2,64,42,-9,-22,4,-74,-38,-93,111, 
  /* [35][0][][] */ 83,6,10,-25,-28,8,-110,-22,-60,-127,-76,-1,-3,-4,73,-51, 
  /* [36][0][][] */ -37,-4,-84,7,8,127,-22,59,6,-16,60,40,-4,17,-75,20, 
  /* [37][0][][] */ 80,24,38,-13,49,-105,47,-33,-127,48,-110,3,-4,41,85,26, 
  /* [38][0][][] */ -41,127,36,-66,73,-3,69,-81,1,12,-111,13,-31,-72,-107,39, 
  /* [39][0][][] */ 69,45,-95,-116,-32,-30,-1,-66,-10,-8,-26,-57,55,13,-127,-88, 
  /* [40][0][][] */ -39,48,-64,-87,-79,-42,17,-127,38,-18,36,-59,57,55,39,88, 
  /* [41][0][][] */ -31,-79,-21,127,-29,-25,-92,-7,-23,-57,79,-86,-76,-27,8,29, 
  /* [42][0][][] */ -14,59,-7,-127,2,7,-2,-39,82,7,-54,7,91,-42,-16,28, 
  /* [43][0][][] */ 12,61,3,7,106,11,2,4,-2,17,-4,-66,-127,-48,-9,8, 
  /* [44][0][][] */ 73,-7,22,24,-12,5,1,36,21,-60,24,5,127,-8,-68,-17, 
  /* [45][0][][] */ 18,-69,-89,31,-52,-77,21,34,20,-45,27,19,-102,127,45,-19, 
  /* [46][0][][] */ -7,-47,67,85,-46,-42,-116,17,74,-14,41,-2,22,40,64,127, 
  /* [47][0][][] */ -40,-33,17,70,-19,-20,34,32,-6,-58,-127,-40,71,-24,-65,14, 
  /* [48][0][][] */ -106,68,-34,-46,24,54,6,-114,57,-2,24,-77,80,-127,-76,-11, 
  /* [49][0][][] */ -55,2,52,-10,7,13,91,127,-28,-24,-22,38,-45,55,-48,21, 
  /* [50][0][][] */ 40,31,-73,28,20,-127,-53,18,-86,10,-22,-24,26,-74,-81,-23, 
  /* [51][0][][] */ -31,50,-32,108,-38,42,-42,-78,-25,-48,-20,-19,5,37,-26,127, 
  /* [52][0][][] */ -107,-15,34,14,38,28,49,-1,27,-61,-55,-26,-95,-62,-127,-24, 
  /* [53][0][][] */ -50,-40,-90,-127,-32,-4,49,54,32,-50,-47,-4,-28,36,33,96, 
  /* [54][0][][] */ 3,-89,-8,-8,-42,54,71,-32,19,-76,37,26,-14,-14,-127,21, 
  /* [55][0][][] */ -20,-44,-29,51,69,-39,47,77,-44,-42,-127,-43,42,-26,-30,27, 
  /* [56][0][][] */ 47,-30,-48,-10,-127,29,-88,9,-28,-20,-66,-24,72,-14,9,-7, 
  /* [57][0][][] */ -39,-2,10,-54,127,-2,9,24,-32,87,-23,-29,-53,50,-113,-39, 
  /* [58][0][][] */ 47,8,24,-42,63,-10,-62,-70,72,-127,-104,24,-64,-61,-62,39, 
  /* [59][0][][] */ -59,-44,-16,18,50,89,-110,-40,107,121,-127,29,-11,16,-50,-25, 
  /* [60][0][][] */ 2,-67,-18,14,-127,-85,42,5,-25,64,-2,39,-13,-44,74,74, 
  /* [61][0][][] */ 24,35,-66,-13,-19,-1,-127,-65,-6,-5,28,113,47,-48,55,51, 
  /* [62][0][][] */ 57,0,10,-40,-27,31,95,113,-83,83,49,58,41,43,112,127, 
  /* [63][0][][] */ 35,-125,-18,-15,-50,25,56,-42,6,-9,-15,8,-45,127,78,17, 
  /* [64][0][][] */ 7,-11,-127,-3,-10,72,1,-10,21,-122,82,26,104,-63,-80,121, 
  /* [65][0][][] */ 16,-2,40,40,65,-16,61,43,15,-22,-127,-43,21,39,-94,-31, 
  /* [66][0][][] */ -56,-94,-31,-127,-80,-120,59,-35,-10,-10,60,69,-72,-53,-69,66, 
  /* [67][0][][] */ 0,-79,-81,-31,-66,92,18,-127,-41,-52,-60,-94,1,-9,-55,12, 
  /* [68][0][][] */ 97,42,49,29,-97,38,-90,-31,-81,-127,-26,2,12,-29,81,-101, 
  /* [69][0][][] */ 45,16,40,-27,10,-18,-35,24,-15,127,-48,11,8,33,42,-22, 
  /* [70][0][][] */ 20,-5,-5,73,-127,22,-6,-57,112,115,23,46,55,-63,-31,33, 
  /* [71][0][][] */ 103,-90,18,118,-86,-17,61,-63,127,-23,-65,27,32,-32,-10,21, 
  /* [72][0][][] */ -19,-50,44,108,59,16,-127,77,61,20,27,14,-11,-32,-71,58, 
  /* [73][0][][] */ 73,32,60,-127,58,-97,-36,45,-29,73,-8,14,32,-84,48,-18, 
  /* [74][0][][] */ 104,23,44,61,-127,-31,35,13,-78,-49,34,-14,30,-76,18,53, 
  /* [75][0][][] */ 119,113,-127,33,52,42,-10,-32,-25,-51,73,55,-79,47,51,93, 
  /* [76][0][][] */ -83,-42,5,-32,-25,-29,81,-7,-50,37,97,33,-53,-127,-18,85, 
  /* [77][0][][] */ -54,126,-55,75,-96,-59,25,127,60,-100,-11,103,-2,88,-31,83, 
  /* [78][0][][] */ 127,24,-48,37,-37,52,-99,-41,7,-24,-105,25,26,-102,-8,29, 
  /* [79][0][][] */ -53,-6,127,65,-82,-123,-59,-41,12,66,12,39,-29,77,-56,73, 
  /* [80][0][][] */ 54,77,2,-127,5,37,80,-27,33,30,-48,7,74,-40,-9,-14, 
  /* [81][0][][] */ 8,-32,22,-95,60,11,-36,127,84,35,-33,-48,0,25,-70,-53, 
  /* [82][0][][] */ 88,38,111,13,83,-127,-10,17,25,124,-3,32,-30,-80,36,-67, 
  /* [83][0][][] */ -11,43,-3,11,103,36,127,72,-6,45,-23,-77,-75,50,-77,-59, 
  /* [84][0][][] */ 2,-118,31,127,-2,-59,-81,17,-65,1,-73,-13,-107,31,-24,-24, 
  /* [85][0][][] */ -123,40,-41,23,-2,-4,-44,-2,-25,30,16,-73,-127,-75,-99,22, 
  /* [86][0][][] */ -8,74,105,103,17,-51,61,16,4,69,-63,-81,49,75,-127,-53, 
  /* [87][0][][] */ -28,30,127,-50,-75,-38,36,-7,49,-10,-4,43,-63,1,-30,-27, 
  /* [88][0][][] */ 24,-45,-98,2,56,46,-5,11,-16,-64,-125,-110,127,-8,-14,24, 
  /* [89][0][][] */ 22,14,24,-127,19,-46,-50,47,116,-18,9,-115,17,-23,37,-65, 
  /* [90][0][][] */ -3,57,45,26,-24,37,45,122,14,-55,-18,127,54,-1,-37,65, 
  /* [91][0][][] */ -69,20,-39,65,86,78,-26,-91,-55,27,7,-18,-127,-100,-39,14, 
  /* [92][0][][] */ -39,27,24,5,-127,-17,-70,27,6,57,91,46,-21,-46,22,35, 
  /* [93][0][][] */ 127,55,86,54,-92,-62,7,24,-25,-81,4,-80,5,-37,-22,17, 
  /* [94][0][][] */ -20,-127,35,-92,23,23,-38,11,83,-4,-9,66,5,69,-55,27, 
  /* [95][0][][] */ -54,-71,-50,-33,74,127,-17,72,92,60,-68,25,-13,127,-60,47, 
};
const TfArray<96, float> quant13_scale = { 96, { 0.0029177858959883451, 0.0013113422319293022, 0.0018901851726695895, 0.0020620515570044518, 0.0017814282327890396, 0.0013099787756800652, 0.0013624826679006219, 0.0023353879805654287, 0.0017244018381461501, 0.0012744057457894087, 0.0020786619279533625, 0.0014773847069591284, 0.0020784414373338223, 0.0011848820140585303, 0.0022258299868553877, 0.0021278813946992159, 0.0021443425212055445, 0.0010114081669598818, 0.0025460638571530581, 0.0020284252241253853, 0.0013482874492183328, 0.0008170393412001431, 0.0013250231277197599, 0.0018448168411850929, 0.0015533852856606245, 0.0015674352180212736, 0.00071367435157299042, 0.0023851038422435522, 0.0018818223616108298, 0.0020204992033541203, 0.00093581661349162459, 0.0034818577114492655, 0.0012467971537262201, 0.0023918740916997194, 0.0019456675508990884, 0.0018682035151869059, 0.002992177614942193, 0.0016267662867903709, 0.0018354713683947921, 0.0021765884011983871, 0.002100946381688118, 0.0028783569578081369, 0.0030840002000331879, 0.0030296351760625839, 0.0028064735233783722, 0.0020902885589748621, 0.002206150209531188, 0.0017754577565938234, 0.0023104047868400812, 0.0030551732052117586, 0.0021981468889862299, 0.0028401704039424658, 0.0017396361799910665, 0.0021717087365686893, 0.0021796261426061392, 0.0022944933734834194, 0.003345581004396081, 0.0025057715829461813, 0.00077845470514148474, 0.0018877295078709722, 0.0021409813780337572, 0.0012823224533349276, 0.0013901664642617106, 0.0018431086791679263, 0.0018513586837798357, 0.0018222776707261801, 0.0018452276708558202, 0.0020041787065565586, 0.0016879964387044311, 0.0027627688832581043, 0.0015237635234370828, 0.0018784523708745837, 0.0016886452212929726, 0.0020221150480210781, 0.002482883632183075, 0.0015505171613767743, 0.0031091861892491579, 0.0016035896260291338, 0.0018927727360278368, 0.0017595714889466763, 0.0029406673274934292, 0.002549988217651844, 0.0012625636300072074, 0.002108817221596837, 0.0035365712828934193, 0.0025351643562316895, 0.0029056444764137268, 0.0030529780779033899, 0.00057892681797966361, 0.0028946185484528542, 0.0031100846827030182, 0.0028909542597830296, 0.0011341334320604801, 0.0025859291199594736, 0.0025858129374682903, 0.0019302821019664407, } };
const TfLiteAffineQuantization quant13 = { (TfLiteFloatArray*)&quant13_scale, (TfLiteIntArray*)&g0::quant6_zero, 0 };
const MODEL_SECTION(EI_MODEL_SECTION) ALIGN(16) int32_t tensor_data14[16] = { -34323, -2705, 10558, -15874, 5182, -12842, 9407, -4137, 6747, -7247, 15203, 14465, 2995, -31300, 1359, 10318, };
const TfArray<16, float> quant14_scale = { 16, { 5.8192312280880287e-05, 4.4632164645008743e-05, 4.8558744310867041e-05, 5.3994033805793151e-05, 8.133395022014156e-05, 0.00017796730389818549, 6.0978072724537924e-05, 4.4506450649350882e-05, 8.9601839135866612e-05, 8.8991851953323931e-05, 0.00010819458111654967, 7.8691940871067345e-05, 8.4962593973614275e-05, 7.2547169111203402e-05, 5.3721661970485002e-05, 7.4840987508650869e-05, } };
const TfLiteAffineQuantization quant14 = { (TfLiteFloatArray*)&quant14_scale, (TfLiteIntArray*)&g0::quant8_zero, 0 };
const MODEL_SECTION(EI_MODEL_SECTION) ALIGN(16) int8_t tensor_data15[16*1*1*96] = { 
  /* [0][0][][] */ 32,47,23,6,-30,-89,-30,3,-5,-89,8,-19,68,-75,67,18,-80,-22,40,30,107,35,-58,-3,21,84,127,64,-3,83,70,-19,24,1,30,-24,23,22,-11,-6,116,48,25,-12,4,-1,-18,-30,34,-39,74,23,-90,-32,49,24,-26,-42,24,18,-5,43,-74,-15,35,16,87,15,-13,-7,2,37,31,71,15,51,81,-61,66,34,10,37,28,59,-50,-1,-25,95,42,-20,-86,-28,18,9,95,83, 
  /* [1][0][][] */ 43,24,-73,-1,-22,-29,101,-91,-70,-44,-55,-51,-17,-71,10,-88,-53,-47,-65,29,-11,-105,123,-17,-5,-15,-17,86,-42,-17,-53,42,-52,47,41,-6,-11,44,-48,84,60,18,17,-36,42,-63,8,28,-115,12,73,-102,-60,48,50,93,10,27,-84,40,-43,20,-18,-18,30,20,91,18,-29,-127,20,6,20,45,-53,54,-81,-49,90,-43,34,3,86,-27,-52,-44,-7,-8,-26,-65,8,-9,72,-45,-31,63, 
  /* [2][0][][] */ 4,-48,44,3,95,71,-63,42,-95,56,44,-20,50,-5,44,56,17,-47,-127,-42,-43,-72,3,31,-36,-8,-55,35,-18,-41,-35,60,-27,-51,-15,2,-69,14,-7,-40,83,-1,22,50,-15,43,22,-24,-111,18,4,0,-14,47,-4,-65,41,38,25,16,-48,-43,-40,61,13,-32,-71,14,15,-33,10,-59,6,53,37,66,-80,-30,-46,-47,16,48,58,-51,-34,-65,-5,-74,-11,-41,-8,78,0,-11,106,-29, 
  /* [3][0][][] */ 31,-47,-15,-94,3,-3,104,-23,38,127,-72,-39,-3,-40,-13,62,43,32,-35,32,-30,7,42,3,-41,75,37,11,-21,-43,-76,82,25,-7,54,-44,8,-51,-1,56,17,17,-29,40,22,-45,3,17,44,-12,40,-39,117,30,11,-12,-12,6,-12,-48,-25,22,58,16,-29,-23,108,-21,-39,19,-59,28,-5,-72,28,-93,2,-59,116,-20,-9,-51,-21,-36,-27,-26,60,69,-33,65,-62,7,24,-59,-26,64, 
  /* [4][0][][] */ -8,99,44,1,-5,-5,-53,-17,32,-44,-5,-24,28,28,-32,22,6,-46,-19,-58,25,-6,-51,23,3,-46,-23,2,-57,127,-29,-26,19,-41,0,-25,70,64,-55,15,36,2,-6,-41,-53,5,35,-6,34,-28,-71,14,-68,39,50,53,-9,75,6,38,-18,-41,-24,7,77,50,-45,-13,-3,-3,-14,-55,-19,66,58,76,-21,17,-52,57,41,66,46,-36,50,-45,-17,-60,-41,-60,-60,-5,-8,9,15,-40, 
  /* [5][0][][] */ -8,0,16,-25,-14,-20,-21,-2,48,0,-26,-4,-5,-20,8,-11,-11,-1,-57,-25,-16,8,-9,-1,31,-48,55,-22,-11,44,22,64,-7,-71,19,6,-25,-21,-32,8,-47,-13,-15,17,3,19,-66,19,-7,9,32,1,16,-44,-2,10,-14,-47,11,-29,47,21,22,34,-22,17,112,-35,-13,-20,10,2,-9,13,31,2,2,-1,127,44,-4,-11,-30,36,39,64,11,70,-7,-17,1,3,2,-8,-40,30, 
  /* [6][0][][] */ 18,-24,61,17,-25,97,-43,-97,-2,-72,-86,45,28,33,-29,68,15,44,22,-10,-66,4,-74,-26,37,-49,-2,55,-127,58,9,-31,32,87,-29,-8,8,-2,7,-19,-38,25,39,-40,37,33,-93,13,47,11,-83,-88,72,21,-14,-1,3,-10,38,0,-1,-5,32,-26,69,-43,-46,-64,-95,9,-6,-46,-8,-77,38,-93,78,14,-46,50,-4,84,48,-65,82,-10,-26,3,-79,66,-82,56,34,-35,58,-71, 
  /* [7][0][][] */ 0,-26,-60,77,-36,15,55,2,-121,7,97,64,-8,-63,19,-52,-21,-23,-11,-13,-53,11,-75,-21,58,48,5,81,-5,25,34,32,-72,-127,22,82,-27,19,-34,-11,5,-20,12,-71,30,56,90,72,-25,59,-31,-6,5,-66,40,-36,-39,18,-81,-52,53,3,8,-48,51,-70,105,0,-49,-28,79,-7,-5,-38,-94,-9,10,-61,83,-44,-14,-3,-80,-55,32,-12,-87,29,-11,21,-6,23,54,-17,111,-14, 
  /* [8][0][][] */ -5,-45,11,-4,4,-13,3,-6,7,-15,30,40,16,20,-50,3,72,-3,32,2,-7,-61,-4,-22,-7,-39,73,-4,-21,48,15,-32,2,-9,9,3,-40,-28,4,-11,-5,31,24,-29,12,0,11,-2,39,-8,36,21,2,30,-34,-9,-14,115,-46,-1,8,-58,-41,2,-60,-21,-7,4,-19,19,20,-10,-23,-127,51,-107,16,22,-41,21,-11,-16,-8,67,64,-36,-34,55,-37,97,19,-5,-40,13,-21,-42, 
  /* [9][0][][] */ -36,-34,-18,33,14,26,11,45,-58,-3,71,42,-21,52,36,-58,-30,18,-26,-42,4,27,-16,21,-36,30,1,25,45,-15,1,-1,-28,-13,6,38,-10,5,32,-14,-7,-22,17,1,2,47,15,26,-52,21,-1,12,127,6,-20,10,19,-7,13,16,-45,-13,64,8,0,12,48,22,41,0,-3,7,-8,-112,-32,-106,-43,-21,24,-10,-18,42,15,-42,30,3,-61,-13,6,94,23,40,57,22,0,34, 
  /* [10][0][][] */ 7,28,22,11,-6,19,-29,-5,47,11,-21,20,17,13,7,-29,-39,-8,16,-21,5,-29,-34,-23,-10,-10,-94,48,-7,43,-7,7,6,5,-34,0,24,14,15,-14,24,-3,59,-43,-35,-6,31,14,5,12,20,-41,-11,-27,-13,17,-1,11,-28,-8,-33,-58,-13,14,-18,-28,-97,-13,-35,-38,59,-27,-33,40,31,22,37,-27,-93,3,-26,35,7,-27,-1,-19,-58,-127,-13,13,16,28,58,-38,35,25, 
  /* [11][0][][] */ -6,-51,-8,13,-63,38,22,25,55,-2,-12,-26,3,14,11,-23,-31,35,27,-71,0,23,17,-21,17,11,45,6,42,-72,-39,24,12,85,-80,8,9,-29,61,4,-43,51,-1,10,-46,4,-3,-18,43,-14,-6,-24,-27,4,-88,71,-9,-14,-10,-32,13,-19,-7,-55,-19,-63,-127,-71,1,-21,-61,27,44,31,-10,16,27,37,-101,-38,-16,-6,-26,-26,-20,-30,39,67,18,-58,17,21,-34,26,81,16, 
  /* [12][0][][] */ -1,14,-32,-13,25,-16,10,47,29,-25,30,3,-14,-2,6,20,-3,-45,-27,-14,-2,36,-18,28,-54,-24,-127,2,74,-25,18,-8,-32,-70,48,-6,20,-3,5,3,-13,-40,20,33,35,8,34,-29,-66,12,-36,72,47,-29,24,-81,16,11,-48,-45,-6,25,51,12,-32,-34,18,32,108,5,31,11,-3,-3,-11,7,-42,-69,33,-68,8,-47,28,-42,0,-22,0,-100,-19,11,-32,40,37,44,28,37, 
  /* [13][0][][] */ -23,18,-85,33,16,24,0,8,16,41,-32,32,-32,-12,69,-63,-11,46,69,29,-39,-23,-14,23,49,46,-27,24,4,36,63,-29,-8,93,-1,27,27,-27,-47,-49,9,-10,14,21,46,51,-21,40,-51,28,12,18,-11,-20,57,40,8,-34,-8,-13,31,46,2,-47,14,84,124,49,34,7,-55,-10,25,45,-75,55,0,-75,127,-41,0,-28,32,15,13,78,-35,-27,-24,-1,-1,57,37,26,63,59, 
  /* [14][0][][] */ -11,52,33,41,-71,-35,35,51,-74,-26,90,9,-75,6,84,-27,-43,29,-62,28,-18,11,-103,15,-75,16,-76,-96,42,3,8,85,-68,35,15,-16,-19,-69,5,-56,16,-20,40,-37,2,52,-55,21,-28,-33,99,7,-15,4,-30,25,-48,15,-13,35,16,37,-16,39,-3,-51,-22,-43,57,72,97,23,-51,46,19,13,17,-40,21,1,-88,97,7,-127,97,-24,-24,-5,-102,-27,-14,9,-19,4,55,34, 
  /* [15][0][][] */ 71,-33,25,23,38,4,-6,-8,2,40,-35,-3,48,57,0,7,-9,2,-54,20,-20,-24,2,33,33,-32,82,20,48,-11,-57,32,57,14,-24,-54,39,45,58,39,73,22,-17,-1,-44,-113,39,-31,-30,-23,-3,-28,1,-55,-22,49,-10,7,-37,-10,-21,-74,-35,36,22,27,-75,44,5,-52,12,-16,-5,-111,-46,-91,-13,14,-127,27,54,-27,39,-2,-59,-17,8,-20,38,76,27,-60,-15,-31,35,-49, 
};
const TfArray<16, float> quant15_scale = { 16, { 0.0024731731973588467, 0.0018968669464811683, 0.0020637465640902519, 0.0022947464603930712, 0.0034566929098218679, 0.0075636100955307484, 0.0025915680453181267, 0.0018915241817012429, 0.0038080781232565641, 0.003782153595238924, 0.0045982697047293186, 0.0033444073051214218, 0.0036109101492911577, 0.0030832546763122082, 0.0022831705864518881, 0.003180741798132658, } };
const TfLiteAffineQuantization quant15 = { (TfLiteFloatArray*)&quant15_scale, (TfLiteIntArray*)&g0::quant8_zero, 0 };
const MODEL_SECTION(EI_MODEL_SECTION) ALIGN(16) int32_t tensor_data16[96] = { 8158, -117, -4131, 10374, 3235, 172, -81, 166, 3562, -4149, -1034, -5772, 12442, -3085, -1966, -5999, 101, 3430, -10271, -20, -1403, 1551, -7736, 3155, 37, 7639, -10931, -11611, -1524, -3541, -1777, -2591, 13628, -196, -4023, -1675, 2425, 14977, 2704, 11501, -1781, 7161, 1914, 3889, -704, -3400, 11891, 1609, -4930, 589, -3709, -1113, -2210, -4279, -2657, 2624, -636, -195, 1458, 1437, 947, 844, -4544, 5454, 10890, 4106, 11901, 3032, -1542, -3442, 12991, -854, 339, 1502, -4427, 3541, 20969, 17898, 11297, 14316, 11349, -1180, 11321, 4258, -1439, -4291, 15862, -6795, 12937, -2071, -8513, -4778, -435, 1958, 28256, -587, };
const TfArray<96, float> quant16_scale = { 96, { 0.00011884151899721473, 0.00021141422621440142, 0.00019092769070994109, 0.00013040749763604254, 0.00018107131472788751, 0.00032903332612477243, 9.8811564384959638e-05, 0.00024337820650544018, 0.00027667591348290443, 0.00022065966913942248, 0.00028844256303273141, 0.00014061130059417337, 5.7671604736242443e-05, 0.00013600733655039221, 0.00021929707145318389, 0.00015983259072527289, 0.00032097141956910491, 0.00024071686493698508, 0.00010941635991912335, 0.00029921004897914827, 0.0002356311451876536, 0.0002322537184227258, 0.00010664196452125907, 0.00014728841779287905, 0.0019377730786800385, 0.00015506515046581626, 0.00019796310516539961, 8.4697909187525511e-05, 0.0003930674574803561, 0.00013133288302924484, 0.00021158099116291851, 0.00017552361532580107, 8.1534650234971195e-05, 0.00038070132723078132, 0.00014368249685503542, 0.00012561393668875098, 0.00023830230929888785, 8.6565247329417616e-05, 0.00018463750893715769, 9.420169226359576e-05, 0.00041675177635625005, 0.00011415308836149052, 0.00015671298024244606, 0.0002029921452049166, 0.00011446033749962226, 0.0002358610654482618, 0.00012534248526208103, 0.00023126369342207909, 0.00013791340461466461, 0.00025040251784957945, 0.00021125316561665386, 0.00017470451712142676, 0.00012220269127283245, 0.0002098137338180095, 0.00017263635527342558, 0.00022098170302342623, 9.4502000138163567e-05, 0.00040763869765214622, 0.00033181512844748795, 0.00028747972100973129, 0.00028012867551296949, 0.00030532435630448163, 0.00012213102309033275, 0.0001634112122701481, 0.00020311982370913029, 0.00029542180709540844, 0.00012571702245622873, 0.00017146226309705526, 0.00023542881535831839, 0.00029549497412517667, 9.9810124083887786e-05, 0.00028387535712681711, 0.00046146503882482648, 0.00014105708396527916, 0.00011922741396119818, 0.00018210122652817518, 6.2315390096046031e-05, 0.00011362889199517667, 0.00011813025048468262, 0.00015755796630401164, 7.4858471634797752e-05, 0.00026277251890860498, 0.0001145803471445106, 0.00044863190851174295, 7.641530828550458e-05, 0.00022962942603044212, 7.4877396400552243e-05, 0.00019086334214080125, 9.6334057161584496e-05, 0.00018826096493285149, 0.00012335862265899777, 0.00018622749485075474, 0.00024429202312603593, 0.00012572748528327793, 8.1905905972234905e-05, 0.0002816472842823714, } };
const TfLiteAffineQuantization quant16 = { (TfLiteFloatArray*)&quant16_scale, (TfLiteIntArray*)&g0::quant6_zero, 0 };
const MODEL_SECTION(EI_MODEL_SECTION) ALIGN(16) int8_t tensor_data17[1*3*3*96] = { 
  /* [0][0][][] */ 6,-29,-26,-57,64,11,32,-37,2,-16,-3,8,-74,20,-17,-42,-9,-7,-21,-30,-40,17,49,12,-2,12,-35,37,22,26,25,19,-43,5,-5,-27,-23,-87,-25,-25,19,-20,8,-18,1,56,-82,4,-30,-13,-4,46,-78,36,32,-6,-7,4,-8,-7,-22,-6,7,-36,-26,-42,-55,-23,-4,46,-50,19,30,37,-8,-15,-17,-42,127,-37,-127,15,-127,1,-23,-24,-6,9,-20,4,15,-13,2,33,-32,18, 9,29,59,-78,-31,-8,127,-51,-10,-24,-31,28,-100,-23,-80,57,-6,52,63,-43,-17,127,127,73,29,27,58,116,127,60,127,-13,-127,-14,-74,-31,-46,-112,127,-112,-9,-101,-29,-33,71,-12,13,5,28,-11,36,127,-117,93,-87,-17,-92,8,-13,22,-13,-127,-95,-58,-52,-11,1,-52,-23,36,-107,60,-127,10,-16,-54,-79,-92,-4,-127,-107,18,-16,-37,127,71,-82,9,-79,14,31,4,20,96,-15,-109, -24,16,4,-36,45,-8,26,-17,-31,11,-7,7,-30,26,0,-32,-10,-13,-10,-42,-11,-12,56,-2,-4,17,13,6,15,8,25,23,28,3,-20,59,-17,-69,-15,40,7,-3,7,-7,-13,-13,-47,-20,-29,-4,4,47,23,2,20,-5,45,0,-4,-20,-13,-10,-24,9,-36,-51,127,8,-18,33,-14,2,26,-12,16,43,-70,75,-55,-37,-50,20,-114,-15,43,-44,-15,-28,-44,-28,31,65,6,50,-4,13, 
  /* [0][1][][] */ -79,-25,17,-34,13,100,-7,-37,0,-27,-21,-5,-123,32,23,29,-22,22,65,25,-6,-33,95,-48,29,6,83,55,-7,8,-9,-4,-62,-13,72,-18,-8,-87,-54,-127,-11,28,72,-29,-50,127,-114,-100,127,55,17,-44,-102,97,70,-24,6,-14,32,1,6,-2,107,-27,-42,0,-15,-12,12,6,-127,28,53,127,-9,-77,-122,-127,-65,-36,-73,0,-31,-18,52,36,-109,70,-104,127,81,-54,127,8,-68,11, 36,127,127,127,-127,-127,116,-43,127,127,-71,-42,-127,127,-24,127,127,-127,127,127,127,-86,74,-127,-127,-127,127,127,-95,127,-2,127,-83,127,127,-112,127,103,16,-44,127,-3,-127,-92,127,-11,127,118,112,-127,127,-103,119,127,-127,127,-127,127,-127,127,-95,113,127,-127,127,127,-4,127,-76,-127,4,-127,8,122,127,48,-3,-104,91,-95,-5,127,116,127,120,94,-127,127,-127,49,-22,-14,-90,-44,-127,-47, -127,-10,16,-96,-9,35,-20,1,-44,-5,1,127,-124,16,22,-4,-26,33,67,-3,18,-39,24,-44,27,5,18,20,-5,-9,3,0,-53,-26,84,127,-15,-127,-46,-36,-34,-75,27,-16,-58,-53,-101,-127,101,59,-4,-23,127,-25,119,-52,88,-14,48,-51,-8,-28,-101,1,-76,-24,-49,-29,-21,16,-88,0,11,-114,41,127,-127,2,-56,12,-14,-14,-93,-45,36,48,-97,48,-39,-64,127,127,-54,-29,-121,-20, 
  /* [0][2][][] */ -51,-57,-34,-34,22,21,-36,-1,-9,-1,36,-21,32,2,-10,-23,1,-20,-41,-8,-31,-3,19,-29,-6,-4,-2,43,7,-26,-11,19,62,0,-1,-32,-14,16,-42,15,-19,16,32,6,17,28,-53,16,-68,-25,-35,-22,8,-49,23,-14,-7,-18,3,-22,-5,14,-23,-20,-45,-31,91,34,31,39,-22,19,-20,-24,-20,-33,-11,-21,-28,-3,-41,-14,-48,-20,-9,22,9,-28,5,10,-11,-10,-19,-19,-93,8, -27,-74,4,-116,-35,2,6,127,-60,73,127,-8,-40,8,127,95,-19,-43,82,-26,-6,-14,82,14,12,-21,17,46,5,-2,-55,-26,-19,-23,-79,-17,-104,-97,56,-88,-20,-127,-43,127,17,-12,-20,-22,-21,-37,-26,-9,65,22,-33,-43,-47,-37,39,-52,127,16,116,1,-83,-56,-14,-14,127,48,-85,2,-3,-24,55,-55,-7,-86,-6,84,-64,-44,-81,-64,45,-127,-34,-8,-47,16,23,-10,9,-127,-82,127, -1,31,-29,17,21,8,-18,19,-27,-7,20,45,47,-22,2,-30,-10,-2,-17,-17,-1,-17,-36,-26,-12,3,-34,27,-3,-37,-24,18,70,7,0,-7,-34,-85,-11,30,-34,-53,-7,12,5,-6,-68,23,-86,-19,-25,-20,-8,-61,37,-30,67,-18,15,-21,-14,12,3,64,-2,-35,-29,43,13,27,18,-1,-73,-42,-23,-30,-25,-27,103,-48,28,-14,-39,13,-14,12,14,21,11,9,8,37,-5,-36,-56,-19, 
};
const TfArray<96, float> quant17_scale = { 96, { 0.006250869482755661, 0.011120041832327843, 0.010042483918368816, 0.0068592210300266743, 0.0095240548253059387, 0.0173066146671772, 0.0051973266527056694, 0.012801295146346092, 0.014552700333297253, 0.011606337502598763, 0.015171606093645096, 0.0073959245346486568, 0.0030334319453686476, 0.0071537629701197147, 0.011534666642546654, 0.0084069324657320976, 0.016882570460438728, 0.012661312706768513, 0.0057551213540136814, 0.015737958252429962, 0.012393812648952007, 0.012216165661811829, 0.0056091928854584694, 0.0077471300028264523, 0.10192368924617767, 0.0081561729311943054, 0.010412535630166531, 0.0044549712911248207, 0.020674705505371094, 0.0069078942760825157, 0.011128813959658146, 0.0092322546988725662, 0.0042885891161859035, 0.020024266093969345, 0.0075574642978608608, 0.0066070877946913242, 0.012534311041235924, 0.0045531904324889183, 0.009711630642414093, 0.0049548549577593803, 0.02192046120762825, 0.0060042655095458031, 0.0082428464666008949, 0.010677054524421692, 0.0060204262845218182, 0.012405905872583389, 0.0065928096882998943, 0.012164091691374779, 0.0072540193796157837, 0.013170762918889523, 0.01111157052218914, 0.0091891717165708542, 0.0064276615157723427, 0.011035858653485775, 0.0090803895145654678, 0.011623275466263294, 0.0049706506542861462, 0.021441128104925156, 0.017452932894229889, 0.015120962634682655, 0.014734309166669846, 0.01605956070125103, 0.0064238919876515865, 0.008595162071287632, 0.010683770291507244, 0.015538702718913555, 0.0066125099547207355, 0.0090186344459652901, 0.012383170425891876, 0.015542551875114441, 0.0052498490549623966, 0.014931379817426205, 0.024272305890917778, 0.0074193719774484634, 0.0062711667269468307, 0.0095782261341810226, 0.0032776875887066126, 0.0059766937047243118, 0.0062134577892720699, 0.0082872910425066948, 0.0039374330081045628, 0.013821404427289963, 0.0060267387889325619, 0.023597303777933121, 0.004019320011138916, 0.012078131549060345, 0.0039384285919368267, 0.010039099492132664, 0.0050670136697590351, 0.0099022183567285538, 0.0064884619787335396, 0.0097952615469694138, 0.012849359773099422, 0.006613059900701046, 0.0043081166222691536, 0.014814185909926891, } };
const TfLiteAffineQuantization quant17 = { (TfLiteFloatArray*)&quant17_scale, (TfLiteIntArray*)&g0::quant6_zero, 3 };
const MODEL_SECTION(EI_MODEL_SECTION) ALIGN(16) int32_t tensor_data18[96] = { 1803, 8783, 530, 2157, 5816, 17560, 642, 883, 12766, -1350, 12558, 4180, 2131, 1112, 4225, 990, 5666, 7029, -187, 11347, 668, 10793, -772, 1872, -8176, 2159, 2585, 2086, 5950, 1467, 4780, 3574, 2301, 13872, 4460, 5357, 3912, 1404, 4367, 2405, 15633, 1890, 3809, 1560, 2945, 10786, 5050, 10041, 1437, -1253, 2300, 5110, 2889, -2932, 8586, 711, 2785, 20628, 1581, 2442, 2878, 15416, 3640, -1216, 17603, 13177, 2251, 5422, 4929, 4186, 4146, 3007, -5349, 7401, 2327, 5217, 864, 14793, 4647, 13098, 2069, 1162, 4077, 26295, -910, 7201, 5407, 2083, -897, 3090, 2006, 10743, 3632, 1955, 4478, 8276, };
const TfArray<96, float> quant18_scale = { 96, { 0.00019736748072318733, 9.4566261395812035e-05, 0.00018805952277034521, 0.00019392003014218062, 0.00010755522816907614, 5.4135995014803484e-05, 0.00017429344006814063, 0.00024439100525341928, 6.6876709752250463e-05, 0.00019709765911102295, 6.3339692133013159e-05, 0.00011130193888675421, 0.00014298614405561239, 0.00018073100363835692, 0.0001362791663268581, 0.00011837292549898848, 0.00010746617044787854, 9.2955575382802635e-05, 0.00015964976046234369, 7.359442679444328e-05, 0.00027788020088337362, 7.3413764766883105e-05, 0.00023858141503296793, 0.00013333704555407166, 9.4118826382327825e-05, 0.00012571820116136223, 0.0001578284427523613, 0.00017664002371020615, 0.0001275828544748947, 0.00019960111239925027, 0.00010328593634767458, 0.00014260844909586012, 0.00015166269440669566, 6.075581768527627e-05, 0.00011602710583247244, 0.00011574361269595101, 0.00014384626410901546, 0.00023143494036048651, 9.9100492661818862e-05, 0.00016124332614708692, 5.6317992857657373e-05, 0.00014092797937337309, 0.00011248436203459278, 0.00015559255552943796, 0.00011683883349178359, 7.9095523688010871e-05, 0.00013167964061722159, 7.0163412601687014e-05, 0.00018579688912723213, 0.00013850002142135054, 0.00019881284970324486, 0.00011979038390563801, 0.00015948871441651136, 0.0001465353270759806, 8.7809414253570139e-05, 0.00017925002612173557, 0.00013038922043051571, 4.6273053158074617e-05, 0.00014307501260191202, 0.00012408997281454504, 0.0001800835452741012, 5.8634090237319469e-05, 0.00015221131616272032, 0.00013620518438983709, 5.2484007028397173e-05, 7.3170209361705929e-05, 0.00016611906175967306, 0.00012226826220285147, 0.00013441569171845913, 0.00010291545186191797, 0.00012249383144080639, 0.00011513209028635174, 0.000112505818833597, 9.3309492513071746e-05, 0.0001709847419988364, 0.00013065719394944608, 0.00016532227164134383, 6.3393614254891872e-05, 0.00011764383816625923, 7.4878764280583709e-05, 0.00015507386706303805, 0.00010945822577923536, 0.00013689325714949518, 3.9263082726392895e-05, 0.00011129453923786059, 9.4217248260974884e-05, 0.0001233134389622137, 0.00018216132593806833, 0.00017249051597900689, 0.00017162378935609013, 0.00012748262088280171, 7.2735718276817352e-05, 0.0001488695852458477, 0.00019162576063536108, 0.00012001154391327873, 8.3568418631330132e-05, } };
const TfLiteAffineQuantization quant18 = { (TfLiteFloatArray*)&quant18_scale, (TfLiteIntArray*)&g0::quant6_zero, 0 };
const MODEL_SECTION(EI_MODEL_SECTION) ALIGN(16) int8_t tensor_data19[96*1*1*16] = { 
  /* [0][0][][] */ 54,22,-1,62,-127,-37,80,40,57,117,-24,60,30,31,51,73, 
  /* [1][0][][] */ -24,49,-117,-13,127,84,-1,-13,-41,27,-58,7,-80,59,-30,3, 
  /* [2][0][][] */ -31,51,99,-21,85,92,22,21,56,5,30,-10,56,-127,-28,-1, 
  /* [3][0][][] */ 127,-39,22,-1,29,32,-39,46,31,40,-69,-37,-54,30,-47,40, 
  /* [4][0][][] */ -105,-41,2,22,-122,20,-58,-46,-29,6,9,-80,-47,41,-68,127, 
  /* [5][0][][] */ -127,6,5,4,122,54,19,26,-62,10,-21,-26,-95,83,-121,-18, 
  /* [6][0][][] */ -127,48,-43,39,-20,-78,48,43,4,-27,-44,52,1,-5,-15,25, 
  /* [7][0][][] */ -21,51,21,-45,65,58,127,24,5,-5,19,38,70,40,-30,18, 
  /* [8][0][][] */ -3,-43,-48,70,-19,46,-65,-88,39,-13,65,29,127,36,-89,-9, 
  /* [9][0][][] */ -8,-127,-10,90,-12,-59,-13,45,51,56,-2,64,-47,11,-18,-69, 
  /* [10][0][][] */ -46,-58,-99,64,-87,127,36,-66,11,-54,54,-30,56,83,-22,86, 
  /* [11][0][][] */ -30,-111,-36,41,-32,87,9,28,30,-1,80,-74,-2,96,-127,98, 
  /* [12][0][][] */ -56,-59,-100,105,-113,-127,0,76,45,50,-5,72,-53,-46,-13,18, 
  /* [13][0][][] */ -74,-12,-46,-3,-23,6,32,18,-26,127,-3,-35,44,20,16,-9, 
  /* [14][0][][] */ -127,-27,-66,-25,-51,83,-11,-49,65,-84,91,-21,38,-45,-32,-40, 
  /* [15][0][][] */ 16,-127,98,-59,-42,-25,14,40,26,-32,-66,-22,69,-26,-31,-56, 
  /* [16][0][][] */ -4,-55,41,-34,45,23,-53,-2,95,-127,28,0,-11,4,-84,-110, 
  /* [17][0][][] */ -4,33,55,-31,37,-22,-54,24,106,-42,17,91,89,-55,-1,-127, 
  /* [18][0][][] */ 83,15,-28,-106,17,-37,127,-38,17,81,4,81,-14,124,-4,-113, 
  /* [19][0][][] */ -39,-62,-34,-116,-100,31,-15,-55,21,-45,-7,-127,14,-47,-8,-51, 
  /* [20][0][][] */ 17,67,65,-79,84,9,-32,60,-101,-127,49,-69,-53,113,-37,-10, 
  /* [21][0][][] */ 74,-54,-126,13,84,44,93,87,-58,-92,9,46,127,-88,5,53, 
  /* [22][0][][] */ 51,-21,88,9,5,4,29,52,12,127,20,20,-25,-1,120,-10, 
  /* [23][0][][] */ -97,-45,-19,75,56,55,27,27,30,-32,12,-62,1,68,31,127, 
  /* [24][0][][] */ 37,-52,49,36,5,-68,16,-76,43,83,-127,56,-24,-51,49,-89, 
  /* [25][0][][] */ 120,-80,127,78,62,46,36,16,-107,108,26,-44,30,38,63,-41, 
  /* [26][0][][] */ -10,19,14,27,-44,119,-9,27,-47,-20,-77,44,-5,29,39,-127, 
  /* [27][0][][] */ 38,14,-21,-41,-67,6,-85,2,-115,-23,-56,-43,-82,39,-9,127, 
  /* [28][0][][] */ -68,38,43,16,7,-29,-127,12,8,-23,1,16,-9,-31,-40,-16, 
  /* [29][0][][] */ -12,-89,-42,80,-22,28,127,-8,56,61,-100,50,29,-32,-47,88, 
  /* [30][0][][] */ 39,-55,-90,-13,-127,68,100,-51,37,-27,-12,-47,-43,77,1,116, 
  /* [31][0][][] */ -127,-19,-9,78,-55,-21,-68,-23,-45,-38,7,-49,-3,-66,8,95, 
  /* [32][0][][] */ -127,-59,-98,-5,-102,-22,11,-4,92,28,-40,-70,43,36,15,-3, 
  /* [33][0][][] */ 5,14,-103,33,-95,-99,65,-31,-127,24,-61,-35,-48,93,41,50, 
  /* [34][0][][] */ 11,70,13,24,-102,-50,15,40,10,-127,-34,21,-7,-7,62,109, 
  /* [35][0][][] */ 34,3,-90,-12,-127,12,72,4,32,53,-9,4,-4,81,45,68, 
  /* [36][0][][] */ 16,-13,-35,46,127,-19,25,31,-73,39,-103,-89,26,-18,-1,-7, 
  /* [37][0][][] */ -127,62,-2,-88,60,-72,-27,-45,-8,-30,-26,66,77,-74,-15,-124, 
  /* [38][0][][] */ 41,87,63,-58,-93,-50,-127,-4,-16,-107,55,109,-31,-96,86,-13, 
  /* [39][0][][] */ 23,-73,33,50,21,73,80,-59,-1,43,-5,4,2,127,24,57, 
  /* [40][0][][] */ 127,92,75,94,-35,-74,-11,18,-72,81,-3,15,-33,-65,93,-28, 
  /* [41][0][][] */ -36,7,-10,73,-104,127,-5,70,-69,4,-85,-6,-2,18,52,-102, 
  /* [42][0][][] */ -45,-127,-21,-54,70,26,77,1,-83,-85,-60,-73,-45,-36,31,68, 
  /* [43][0][][] */ -27,-47,-36,19,70,5,-12,55,-89,-35,-127,-81,99,-31,-40,10, 
  /* [44][0][][] */ -45,-50,-100,-82,-9,67,43,26,-47,-127,-52,49,-51,34,54,117, 
  /* [45][0][][] */ 22,-72,-55,-10,-127,77,-21,-59,77,-79,42,-35,20,40,-57,45, 
  /* [46][0][][] */ 40,-59,2,-1,56,-87,12,78,1,-23,17,71,-26,-42,27,-127, 
  /* [47][0][][] */ -59,-12,5,124,-36,-20,11,97,25,101,123,127,-89,54,14,90, 
  /* [48][0][][] */ 51,-24,-113,-80,16,-72,-15,83,31,-103,19,55,-78,2,-54,-127, 
  /* [49][0][][] */ 38,83,-13,28,-40,-22,49,76,-47,127,-29,73,-45,-6,85,98, 
  /* [50][0][][] */ -5,-7,22,3,-127,-8,-8,-44,62,4,27,56,-16,-51,8,-3, 
  /* [51][0][][] */ 52,9,14,-127,-26,86,78,-65,27,-11,44,-27,74,39,-7,11, 
  /* [52][0][][] */ -1,-20,-16,-86,72,-82,-9,-25,22,-2,127,-68,33,-2,-10,93, 
  /* [53][0][][] */ -30,-45,48,-18,-53,-127,20,-96,-18,82,-85,75,-13,-15,53,-66, 
  /* [54][0][][] */ 52,65,50,-15,-127,-55,-65,-108,-25,38,41,65,-90,-61,23,2, 
  /* [55][0][][] */ 35,30,-35,99,-51,16,33,-58,-7,127,15,52,-7,-20,6,31, 
  /* [56][0][][] */ 26,-127,-17,95,-119,37,-14,122,83,46,85,75,1,-14,6,88, 
  /* [57][0][][] */ 49,13,112,-53,72,-26,-29,35,72,-22,19,127,30,-79,39,-56, 
  /* [58][0][][] */ 73,-54,53,-103,68,27,25,118,127,84,-39,67,33,25,74,-50, 
  /* [59][0][][] */ -39,34,23,-24,-8,-73,4,-14,-2,-27,-122,-111,-127,-84,37,-23, 
  /* [60][0][][] */ 29,-13,7,30,-2,-22,0,-48,-8,127,-2,45,-6,-34,-31,-40, 
  /* [61][0][][] */ 12,53,0,-17,-112,-125,-15,-42,-106,-18,-23,7,-55,-36,115,127, 
  /* [62][0][][] */ -2,73,-39,37,-60,127,-13,26,-53,-15,-30,13,-12,23,56,-68, 
  /* [63][0][][] */ 44,-18,-77,-127,-28,-65,68,-13,6,-103,-36,57,-60,97,51,-49, 
  /* [64][0][][] */ -15,40,21,-43,62,-88,59,37,-127,30,-93,4,-17,97,90,39, 
  /* [65][0][][] */ -16,5,-19,-32,48,13,-50,-89,-127,-6,-9,-15,-53,95,-21,35, 
  /* [66][0][][] */ -5,64,-11,42,-39,127,-40,28,-65,38,-40,63,-25,54,36,-98, 
  /* [67][0][][] */ -16,6,-78,-6,-6,-127,51,-108,-38,55,44,114,-84,-40,20,-94, 
  /* [68][0][][] */ 17,-127,-25,88,-7,32,41,101,36,17,85,39,-84,44,-5,4, 
  /* [69][0][][] */ 38,47,94,-63,32,-28,-65,57,51,87,21,64,83,-108,63,-127, 
  /* [70][0][][] */ 75,9,69,-36,120,-10,-120,-68,-127,-83,-25,59,-40,71,-110,-30, 
  /* [71][0][][] */ -51,-22,11,-59,34,11,-3,20,-115,81,-127,-53,11,48,21,74, 
  /* [72][0][][] */ -17,34,59,27,-57,-13,-124,-82,-14,89,-15,50,8,127,-114,-3, 
  /* [73][0][][] */ -14,-71,-53,-36,40,-112,23,-80,75,85,127,-44,-4,-4,-58,121, 
  /* [74][0][][] */ 10,-15,-19,63,-64,12,98,29,86,72,16,127,114,46,-67,-1, 
  /* [75][0][][] */ -31,41,-29,31,-42,127,-7,13,-23,30,-26,51,-36,74,32,-71, 
  /* [76][0][][] */ -54,104,-32,70,-106,-35,-56,43,74,40,-84,-91,60,-99,-127,36, 
  /* [77][0][][] */ 67,127,-82,110,69,30,59,65,14,-10,92,-29,59,29,75,49, 
  /* [78][0][][] */ 14,-52,-7,-47,69,-127,18,-58,43,30,119,-54,10,-27,-37,127, 
  /* [79][0][][] */ -39,83,13,25,11,-76,-23,12,-109,-3,54,26,127,52,-93,-55, 
  /* [80][0][][] */ -121,53,61,31,49,31,-40,-127,-125,95,-33,-37,1,-55,-1,104, 
  /* [81][0][][] */ 76,85,-45,-8,31,-5,88,91,-125,117,-53,-54,-38,-4,98,127, 
  /* [82][0][][] */ 71,114,-19,-34,-27,-81,68,-59,10,42,-43,106,127,-24,83,-65, 
  /* [83][0][][] */ -13,-26,-3,54,-22,42,-55,-74,54,-56,127,-3,20,-81,-45,-110, 
  /* [84][0][][] */ -127,-79,-55,-33,-24,114,84,10,79,35,98,72,59,89,-67,18, 
  /* [85][0][][] */ 99,-13,94,-90,83,22,-20,64,4,127,-84,-34,-5,69,103,16, 
  /* [86][0][][] */ -88,78,-47,8,12,69,16,11,66,26,127,-40,-20,40,8,-3, 
  /* [87][0][][] */ 12,-52,28,-42,39,-127,17,-24,40,-4,56,-23,31,-33,-39,63, 
  /* [88][0][][] */ -89,66,27,-10,116,-6,42,-3,-64,-90,104,-85,99,127,106,-121, 
  /* [89][0][][] */ -32,42,-14,33,-36,127,4,36,-52,5,-25,19,-4,47,23,-65, 
  /* [90][0][][] */ 46,-81,24,23,114,0,28,15,-8,-66,-127,-34,-20,-21,-55,19, 
  /* [91][0][][] */ 21,76,-36,6,-18,-93,-118,43,-78,23,-109,-127,-90,-95,-13,-1, 
  /* [92][0][][] */ 52,69,33,32,-127,-75,35,14,-34,12,-25,-62,-13,-71,44,13, 
  /* [93][0][][] */ -28,-127,-103,39,-6,-91,5,99,104,59,1,53,-46,69,-51,-31, 
  /* [94][0][][] */ 116,-23,127,-24,48,-24,9,43,50,67,-28,52,25,12,83,-33, 
  /* [95][0][][] */ -94,-27,-49,-48,127,14,84,112,-63,-41,-98,-82,37,35,-99,55, 
};
const TfArray<96, float> quant19_scale = { 96, { 0.0040305303409695625, 0.0019311802461743355, 0.003840448334813118, 0.0039601284079253674, 0.0021964337211102247, 0.0011055355425924063, 0.0035593248903751373, 0.0049908189103007317, 0.0013657193630933762, 0.0040250201709568501, 0.001293488428927958, 0.0022729469928890467, 0.0029199845157563686, 0.00369078922085464, 0.0027830181643366814, 0.002417346928268671, 0.0021946150809526443, 0.0018982876790687442, 0.0032602797728031874, 0.0015029049245640635, 0.005674717016518116, 0.0014992156066000462, 0.0048721786588430405, 0.002722935751080513, 0.001922043040394783, 0.0025673480704426765, 0.0032230857759714127, 0.0036072453949600458, 0.002605426823720336, 0.0040761441923677921, 0.0021092486567795277, 0.0029122713021934032, 0.0030971723608672619, 0.0012407219037413597, 0.0023694417905062437, 0.0023636524565517902, 0.0029375494923442602, 0.0047262371517717838, 0.0020237758290022612, 0.0032928225118666887, 0.0011500951368361712, 0.0028779539279639721, 0.0022970938589423895, 0.0031774258241057396, 0.0023860184010118246, 0.0016152453608810902, 0.0026890893932431936, 0.0014328387333080173, 0.0037942419294267893, 0.0028283712454140186, 0.0040600467473268509, 0.0024462933652102947, 0.0032569910399615765, 0.0029924639966338873, 0.001793195609934628, 0.0036605456843972206, 0.0026627369225025177, 0.00094496284145861864, 0.0029217991977930069, 0.0025340972933918238, 0.0036775672342628241, 0.001197393168695271, 0.0031083759386092424, 0.0027815075591206551, 0.0010717995464801788, 0.0014942418783903122, 0.0033923923037946224, 0.0024968953803181648, 0.0027449633926153183, 0.0021016828250139952, 0.002501501701772213, 0.0023511643521487713, 0.0022975320462137461, 0.0019055152079090476, 0.0034917565062642097, 0.0026682093739509583, 0.0033761204686015844, 0.001294589601457119, 0.0024024578742682934, 0.0015291329473257065, 0.0031668331939727068, 0.0022352957166731358, 0.0027955588884651661, 0.00080180913209915161, 0.0022727958858013153, 0.001924052950926125, 0.0025182394310832024, 0.0037199985235929489, 0.0035225064493715763, 0.0035048068966716528, 0.0026033800095319748, 0.0014853689353913069, 0.0030401328112930059, 0.0039132758975028992, 0.0024508098140358925, 0.001706588314846158, } };
const TfLiteAffineQuantization quant19 = { (TfLiteFloatArray*)&quant19_scale, (TfLiteIntArray*)&g0::quant6_zero, 0 };
const MODEL_SECTION(EI_MODEL_SECTION) ALIGN(16) int32_t tensor_data20[16] = { -5800, 11485, -17824, 608, 13361, -17357, -39677, -8118, -6345, 9003, -14621, -14387, 8667, -8489, -4527, -320, };
const TfArray<16, float> quant20_scale = { 16, { 0.00013233543722890317, 0.00013812701217830181, 0.00016013038111850619, 0.00012810260523110628, 0.00013167058932594955, 0.00014834880130365491, 0.00010092669981531799, 0.00011890599125763401, 9.2665977717842907e-05, 9.7300391644239426e-05, 0.00014524794823955745, 0.00013338505232241005, 0.00010716821270762011, 7.8577562817372382e-05, 0.00012265580880921334, 0.00012089290976291522, } };
const TfLiteAffineQuantization quant20 = { (TfLiteFloatArray*)&quant20_scale, (TfLiteIntArray*)&g0::quant8_zero, 0 };
const MODEL_SECTION(EI_MODEL_SECTION) ALIGN(16) int8_t tensor_data21[16*1*1*48] = { 
  /* [0][0][][] */ 39,28,37,-42,77,60,-31,49,4,123,-17,48,-40,50,-2,65,18,90,31,-82,-85,96,-9,50,63,57,24,55,-58,-51,-28,97,-32,-2,-88,37,57,-127,-38,21,28,-28,52,0,0,-52,-66,-35, 
  /* [1][0][][] */ -59,9,-85,-34,4,89,-57,25,-6,-36,-41,20,40,-22,-32,-20,-29,-28,2,32,-53,38,-87,-32,-50,-39,52,57,-18,-41,32,-53,17,-48,-22,46,9,-66,127,-20,-20,27,-45,-23,20,36,33,21, 
  /* [2][0][][] */ -6,-5,54,-24,-25,-76,24,17,99,65,-83,16,119,-50,127,86,-67,-29,-20,34,80,-83,-34,-105,3,-47,33,-72,45,38,-52,4,37,-25,58,35,-63,8,18,-34,32,34,57,-3,21,-81,70,-76, 
  /* [3][0][][] */ 21,8,-25,-24,43,116,11,-13,36,-47,22,-17,-40,-2,5,34,-38,-58,47,-112,-9,-5,-31,-20,-44,85,127,67,-12,-34,25,30,49,-26,94,32,-53,-54,13,39,19,11,-15,-4,13,14,-9,-23, 
  /* [4][0][][] */ 115,1,7,-46,81,71,47,31,73,-18,-104,25,21,-23,5,-14,-99,-127,-26,-103,-26,24,-33,-29,-74,107,-93,125,-73,-56,24,86,42,-52,16,-29,-2,2,-33,32,-45,-20,10,45,-58,104,-34,-54, 
  /* [5][0][][] */ -3,-16,-55,7,-9,63,29,-37,67,69,39,89,55,-22,41,3,-38,127,-21,45,5,-3,-70,-22,40,12,-78,-37,0,27,14,-23,-41,7,39,15,-45,-1,-86,8,95,-18,35,44,-20,7,-51,25, 
  /* [6][0][][] */ 70,2,13,79,9,-20,109,-46,0,61,126,96,44,49,-41,56,39,-35,-64,53,38,-57,-41,49,-78,74,64,4,92,51,-24,17,79,-57,-119,-14,97,46,0,-4,17,52,70,-11,62,127,14,-18, 
  /* [7][0][][] */ -97,4,-35,53,-68,-41,23,53,67,103,-49,-64,-96,6,-22,-11,-65,94,5,120,-52,33,16,19,-19,-92,-24,-78,29,34,-4,-1,-12,17,7,-19,-1,-56,127,9,13,51,11,-18,59,60,-31,9, 
  /* [8][0][][] */ -13,-111,66,-55,76,-80,82,-38,-15,-114,30,2,-50,10,26,30,-12,11,-53,96,18,27,-17,44,64,-15,-68,-37,-127,-21,-58,-111,-3,-82,17,82,-19,30,119,22,18,2,89,123,-8,-67,-52,69, 
  /* [9][0][][] */ 36,-30,11,-65,34,107,-52,67,3,-56,-26,-9,33,-72,115,-26,19,-126,54,59,-69,34,50,-53,-36,-103,-20,98,69,96,-30,-44,-53,51,-3,127,-32,-49,-61,-45,-42,10,20,115,59,99,-70,24, 
  /* [10][0][][] */ -14,24,-29,0,14,20,-67,-35,47,25,71,-3,-34,-13,39,-55,-52,127,7,52,10,-16,12,36,-49,37,13,93,35,8,-21,-8,77,18,1,17,-18,-50,-37,7,-88,-4,12,-21,9,39,21,35, 
  /* [11][0][][] */ -36,42,-16,30,26,64,-5,1,23,17,-127,-76,62,33,-8,-40,-11,25,-43,-35,-9,-4,115,18,51,19,-12,23,12,16,-12,40,32,-19,-44,8,43,73,101,35,39,-28,56,-9,-57,-25,90,11, 
  /* [12][0][][] */ -80,-4,33,12,-69,-71,-1,-4,-41,-44,-127,8,65,-97,23,29,48,114,91,-118,-31,42,-43,-85,-5,-19,36,-21,20,16,-15,80,77,89,50,-42,-71,-32,28,-8,-41,25,64,-5,35,-8,-52,-39, 
  /* [13][0][][] */ -47,-92,-58,-73,-1,40,54,4,-127,16,122,-36,64,23,100,0,126,27,9,-103,61,-82,92,-11,-78,-14,-30,17,-29,-68,-78,5,46,-16,-69,44,29,-34,71,-83,-8,40,47,36,52,-20,89,-64, 
  /* [14][0][][] */ 49,31,-67,10,-49,25,-88,-25,-40,53,55,52,-3,-68,8,-46,56,-102,28,18,86,-62,14,-19,-17,127,-79,3,-47,-18,-81,-6,118,50,81,-25,-76,21,-8,50,-16,-29,88,-24,-56,-44,-48,56, 
  /* [15][0][][] */ -65,20,39,22,99,-15,-2,40,15,72,-9,56,55,-22,-43,-31,29,29,10,-35,20,-49,-52,-64,37,-72,-36,72,-45,12,27,11,-59,8,127,-9,-96,14,52,-31,-58,-14,4,0,-38,-37,-11,13, 
};
const TfArray<4, int> tensor_dimension21 = { 4, { 16,1,1,48 } };
const TfArray<16, float> quant21_scale = { 16, { 0.0058940560556948185, 0.0061520054005086422, 0.0071320086717605591, 0.0057055307552218437, 0.0058644446544349194, 0.0066072712652385235, 0.0044951499439775944, 0.0052959253080189228, 0.0041272277012467384, 0.0043336385861039162, 0.0064691635780036449, 0.0059408047236502171, 0.0047731390222907066, 0.0034997472539544106, 0.0054629375226795673, 0.0053844200447201729, } };
const TfLiteAffineQuantization quant21 = { (TfLiteFloatArray*)&quant21_scale, (TfLiteIntArray*)&g0::quant8_zero, 0 };
const MODEL_SECTION(EI_MODEL_SECTION) ALIGN(16) int32_t tensor_data22[48] = { 11474, 140, 23320, 148, 16522, -1341, 46749, 277, 9956, 53772, 4064, 27916, 2346, 10349, 28685, 29852, 127, -2025, 1134, 41465, -263, 17087, 6091, 13000, 13440, 41561, 559, -1370, -4353, 15851, 14987, -130, 2849, -2780, 3056, 13411, 7701, 29364, 114, 20945, 23669, 182, 1090, 14375, -476, 2305, 38002, 23298, };
const TfArray<1, int> tensor_dimension22 = { 1, { 48 } };
const TfArray<48, float> quant22_scale = { 48, { 0.00012553502165246755, 6.7044144088868052e-05, 6.5873886342160404e-05, 0.00012013554078293964, 0.00012316417996771634, 0.0001562742399983108, 4.214152431814e-05, 0.00038226787000894547, 0.00013604639389086515, 3.5575721994973719e-05, 5.1564013119786978e-05, 5.8459194406168535e-05, 6.9239700678735971e-05, 0.00014338953769765794, 5.5651213187957183e-05, 5.683550625690259e-05, 0.00011838402861030772, 7.0892936491873115e-05, 0.00017360044876113534, 5.2335311920614913e-05, 8.0434168921783566e-05, 8.1993792264256626e-05, 5.4601103329332545e-05, 0.00013658365060109645, 8.2085105532314628e-05, 6.2564162362832576e-05, 7.2621936851646751e-05, 5.5947770306374878e-05, 0.00023495072673540562, 7.2760871262289584e-05, 9.0007677499670535e-05, 0.00041885106475092471, 0.00010270928760292009, 0.00016887960373423994, 9.015938121592626e-05, 7.6606462243944407e-05, 0.00011872664617840201, 5.783063534181565e-05, 0.00011226751666981727, 9.327452426077798e-05, 6.5533036831766367e-05, 0.00011489685130072758, 0.00031275593210011721, 7.5359006586950272e-05, 0.00014094616926740855, 5.4782332881586626e-05, 4.8119301936822012e-05, 7.3342802352271974e-05, } };
const TfArray<48, int> quant22_zero = { 48, { 0,0,0,0,0,0,0,0,0,0,0,0,0,0,0,0,0,0,0,0,0,0,0,0,0,0,0,0,0,0,0,0,0,0,0,0,0,0,0,0,0,0,0,0,0,0,0,0 } };
const TfLiteAffineQuantization quant22 = { (TfLiteFloatArray*)&quant22_scale, (TfLiteIntArray*)&quant22_zero, 0 };
const MODEL_SECTION(EI_MODEL_SECTION) ALIGN(16) int8_t tensor_data23[1*3*3*48] = { 
  /* [0][0][][] */ -84,62,-110,102,-80,68,-86,41,-65,-62,94,-67,73,-127,-29,-78,71,80,123,-127,65,-68,81,-76,-21,-93,53,122,-61,-88,-35,44,102,-102,68,-116,-45,-106,112,-93,-20,-122,67,-125,68,57,-83,-41, -127,102,-125,120,-106,127,-81,32,-91,-95,126,-127,83,-116,-42,-127,82,127,127,-118,94,-53,127,-127,-99,-82,73,127,45,-117,-87,24,127,-116,83,-127,-45,-127,123,-38,-111,81,101,-48,-47,74,-70,-100, -58,116,-8,34,-34,45,-60,56,-47,-67,64,-56,43,-24,3,-49,24,31,67,-57,22,-85,78,-35,-25,-57,9,62,93,-59,-23,48,15,-78,25,9,-17,-9,42,-38,-127,-30,-1,-25,-50,77,-45,-64, 
  /* [0][1][][] */ -82,82,-50,127,-63,58,-119,127,-93,-86,112,-62,102,-98,-93,-86,76,73,-68,-61,92,-127,96,-47,-81,-115,79,94,-127,-76,-90,48,109,40,91,-113,-69,-103,96,-125,-91,-107,99,-127,127,75,-127,-68, -69,127,-127,110,-127,120,-127,92,-127,-127,127,-122,127,-77,-127,-117,127,106,-76,-50,127,-105,125,-95,-127,-127,127,86,-9,-127,-127,127,108,36,127,-117,-127,-92,127,-127,-87,127,127,-120,-73,127,-124,-127, -68,96,-73,25,-32,40,-59,-9,-49,-55,47,-77,61,-9,-24,18,67,62,-39,-38,17,-41,60,-18,-83,-56,46,31,93,-26,-60,67,27,18,72,-13,-43,-26,39,-127,-43,-51,23,-63,-70,106,1,-82, 
